#include <iostream>
#include <fstream>
#include <math.h>
#include <sstream>
#include <vector>
#include <string.h>
#include <stdlib.h>
#include <mkl/mkl.h>

using namespace std;




// COP290 A1 Subtask3 FC weights
#define IP1_WT {0.026471, -0.016458, -0.00335, -0.006234, -0.01162, 0.003132, -0.015872, 0.001005, 0.008359, -0.035496, -0.007518, -0.015157, -0.008099, -0.001172, -0.006543, -0.001028, 0.107198, -0.004782, 0.083202, 0.104688, 0.005382, -0.016459, -0.022126, -0.007133, 0.174654, -0.002124, 0.00643, -0.019605, -0.005366, -0.002884, 0.02331, 0.003751, -0.003189, -0.000341, -0.013322, -0.011958, -0.023945, -0.003743, 0.006105, 0.003564, 0.012896, -0.015953, 0.013207, 0.018909, -0.008303, -0.011456, -0.005973, -0.007238, 0.005741, 0.001114, -0.022584, 0.025071, -0.00202, -0.001314, -0.009534, 0.084847, 0.001582, -0.003742, 0.011609, 0.051736, -0.001955, 0.097528, -0.00724, -0.008576, 0.00034, 0.008676, -0.001611, -0.005486, 0.095541, -0.010182, -0.01096, -0.042436, -0.003479, -0.009418, -0.017682, 0.043794, -0.011667, 0.013557, -0.020936, 0.021258, 0.003676, 0.004973, -0.009494, -0.04561, -0.02647, -0.017054, -0.007255, 0.051243, 0.024937, -0.003293, -0.009524, 0.017993, -0.006906, -0.011705, 0.002075, -0.017144, 1.1e-05, -0.000459, 0.009504, 0.003826, 0.008612, 0.033474, 0.00559, -0.002971, -0.015652, -0.039457, 0.011967, -0.008312, -0.003246, -0.034257, 0.000182, 0.005109, -0.000661, -0.00728, -0.000882, -0.008497, 0.127861, -0.00678, 0.007721, 0.006047, -0.00364, -0.007256, 0.005466, 0.005542, -0.003174, -0.001164, -0.005304, -0.038702, 0.016671, 0.012394, -0.012373, 0.118658, -0.0091, -0.013138, -0.000736, -0.003733, -0.012342, -0.006644, -0.000329, -0.004446, 0.008958, -0.008778, 0.024276, -0.000777, -0.140275, -0.127134, -0.017716, 0.124679, -0.013308, 0.066788, 0.081516, -0.038299, 0.064985, 0.135096, -0.092113, 0.070513, -0.025611, 0.039192, 0.054008, 0.057814, -0.050502, -0.160255, -0.071931, 0.065576, -0.131838, 0.027211, 0.017633, -0.072253, 0.134468, -0.058944, -0.031026, -0.055597, 0.084136, -0.024217, 0.087858, -0.09793, 0.021356, 0.032507, -0.209776, 0.063533, -0.18596, 0.034401, 0.12915, -0.110701, 0.019418, 0.081939, 0.205647, -0.035498, 0.08145, -0.016324, 0.257479, 0.057959, 0.027983, 0.045644, 0.058114, -0.00299, -0.063889, -0.00927, 0.045285, 0.133199, 0.188984, -0.025459, 0.038014, -0.18428, 0.003399, -0.018034, 0.06058, 0.109582, -0.044017, 0.071872, 0.136315, 0.077511, -0.048697, 0.01772, -0.096564, 0.006615, 0.123829, 0.105257, -0.008812, -0.142599, -0.011607, 0.052252, -0.034393, 0.009299, 0.021429, 0.016841, 0.030564, -0.077684, -0.076545, 0.003448, -0.0171, -0.224003, -0.08524, -0.07596, -0.038835, -0.04056, -0.0516, -0.057309, 0.037146, -0.098252, -0.032458, -0.001562, 0.031845, -0.149907, -0.051413, -0.067706, 0.061335, -0.033288, 0.068968, 0.020199, 0.098249, 0.097882, -0.049694, -0.018463, -0.025576, 0.097092, 0.040036, 0.061682, 0.045502, -0.046857, -0.139991, -0.088505, -0.087944, 0.112072, 0.139107, -0.016896, -0.012872, -0.01649, -0.056676, -0.134716, 0.093519, -0.069426, -0.016171, -0.033487, -0.149137, -0.052995, -0.052558, -0.052577, 0.101012, -0.036081, 0.208883, 0.127387, 0.03332, 0.07946, 0.049579, 0.03493, 0.074294, 0.057315, 0.079719, -0.217925, 0.133097, -0.104646, -0.026506, 0.036738, -0.081031, -0.006757, 0.138979, 0.022712, -0.027037, 0.081077, 0.094703, -0.010699, -0.037305, -0.015097, -0.261097, -0.044233, -0.076634, 0.075451, -0.017375, -0.118572, 0.045363, 0.011509, 0.041657, -0.046498, 0.048868, -0.005013, 0.040136, -0.132802, 0.058597, 0.012146, -0.063537, -0.059905, 0.110513, -0.117588, -0.018242, -0.05782, -0.131532, -0.027968, 0.080549, 0.027003, 0.215368, -0.061513, -0.074003, 0.024933, 0.072523, 0.165605, -0.013219, 0.080316, 0.012331, -0.041501, 0.077387, 0.098126, 0.007232, -0.258439, -0.20187, 0.033524, -0.099781, 0.154295, 0.164188, -0.086283, -0.224497, -0.025757, 0.002778, -0.077549, -0.164516, 0.025599, 0.084625, -0.074842, 0.059205, -0.1057, -0.024771, -0.111093, -0.087523, -0.036851, -0.06154, 0.025851, 0.042475, -0.045267, 0.104753, -0.003072, -0.063788, 0.039075, 0.14756, 0.045397, -0.026467, 0.15863, 0.084294, -0.001371, 0.025957, 0.15407, 0.029894, -0.059957, -0.064117, -0.027716, -0.055297, 0.104708, 0.180033, -0.026811, 0.048207, -0.062666, 0.134196, 0.032177, 0.083336, 0.183969, 0.077701, 0.012085, 0.009959, 0.117836, 0.006804, -0.056498, -0.057251, -0.021047, 0.072204, -0.017204, 0.18383, 0.152088, 0.031392, -0.156386, 0.10777, 0.016807, -0.008135, -0.179354, 0.159942, 0.045566, 0.124972, 0.044114, -0.105546, -0.197407, -0.100179, -0.024847, -0.333149, -0.100428, 0.061562, 0.153435, 0.110624, -0.19661, 0.152834, 0.492285, -0.115658, -0.119421, -0.004955, -0.171314, 0.06421, 0.151017, 0.030192, -0.176634, -0.139862, -0.039159, 0.08916, -0.00416, -0.040371, -0.059181, -0.018667, -0.077254, -0.24668, 0.015143, 0.040605, 0.082549, -0.450433, 0.226534, 0.092168, 0.232095, -0.123201, 0.053089, -0.096114, 0.056137, -0.077622, 0.029857, 0.020097, 0.003273, 0.083481, -0.056853, -0.140266, 0.110158, 0.074672, -0.031204, -0.116461, 0.02305, -0.017314, 0.038007, -0.101563, -0.009475, 0.131145, -0.021727, 0.296199, 0.072172, 0.02401, -0.04756, 0.144337, -0.120701, -0.253028, -0.059593, 0.011726, 0.025496, -0.133027, 0.163902, -0.011462, -0.063974, 0.02747, -0.105233, -0.050437, 0.032984, -0.123146, -0.011666, -0.317427, -0.056995, -0.121619, 0.03088, 0.102178, 0.270847, 0.033023, 0.085103, -0.046252, -0.019071, -0.001687, 0.050397, 0.079196, 0.087154, -0.093909, 0.109929, -0.002559, -0.079512, -0.01071, 0.016624, -0.090193, 0.102234, 0.025389, 0.118504, -0.047736, -0.023395, -0.152256, 0.009639, -0.022864, -0.120458, 0.093337, 0.090863, -0.109641, 0.028675, 0.169122, -0.056397, 0.108265, -0.060026, -0.044945, -0.05751, 0.104359, 0.014729, 0.070612, 0.087294, -0.054467, 0.168033, 0.020151, 0.005666, 0.031978, -0.216291, 0.14039, 0.111587, -0.070004, 0.004381, -0.068854, 0.183789, -0.143462, 0.029283, -0.113606, -0.053118, -0.075151, 0.060513, -0.056991, -0.08202, 0.119431, 0.026706, 0.081031, 0.134738, 0.172192, 0.05041, -0.183514, -0.070487, -0.013144, -0.016333, 0.122766, 0.004611, 0.109193, -0.111666, 0.136668, 0.145586, 0.03827, -0.024242, 0.0707, 0.13305, -0.136779, 0.131823, 0.144442, -0.084166, 0.121808, 0.118252, -0.05153, -0.177486, 0.071124, -0.003149, 0.126835, -0.104469, -0.026398, 0.078429, 0.302939, 0.032822, 0.108713, -0.125751, 0.062271, -0.027949, -0.017015, 0.06328, -0.175918, 0.104037, -0.16087, -0.034948, -0.170564, 0.124555, 0.096474, 0.061026, 0.155471, -0.022787, -0.062864, 0.061796, 0.0082, 0.152411, 0.109308, 0.022651, -0.156958, 0.111456, -0.354132, -0.014025, -0.092261, 0.146092, 0.05402, 0.192113, -0.001034, -0.059684, -0.026374, 0.016492, 0.106015, -0.01179, 0.050924, -0.045779, 0.142619, -0.148117, 0.029499, 0.061722, -0.0212, -0.021729, 0.01765, -0.149969, 0.090246, 0.016903, -0.042694, -0.105398, -0.104509, -0.049651, 0.009578, 0.048127, -0.007224, 0.060845, -0.088377, 0.074817, 0.027217, 0.098118, -0.093677, -0.010043, -0.111802, -0.064467, 0.095762, -0.082059, -0.062463, 0.098868, 0.161162, 0.105895, 0.086713, 0.046807, 0.022907, -0.221544, 0.024629, 0.050051, 0.140961, 0.103478, 0.055611, -0.044256, -0.085484, -0.032549, 0.02518, -0.118126, -0.016075, 0.035814, -0.097142, -0.001138, 0.024788, 0.091775, 0.125554, 0.038716, 0.136487, 0.1991, 0.070931, 0.156767, -0.080425, -0.067356, -0.142552, -0.02305, 0.005373, -0.065938, 0.111869, -0.055476, 0.036657, 0.113661, 0.091838, 0.201522, 0.10408, 0.202398, 0.047311, 0.06559, -0.035841, 0.107302, 0.271388, -0.0191, -0.077209, -0.070416, -0.05514, 0.02899, 0.028808, -0.250245, 0.029436, -0.053506, 0.07422, 0.143977, 0.008289, -0.191556, 0.135533, -0.118214, 0.124615, -0.006191, 0.043902, 0.003184, -0.0506, -0.109977, 0.089718, -0.184861, 0.159149, -0.057885, 0.127083, 0.020983, 0.253227, -0.111847, 0.181869, -0.169872, 0.17166, 0.018442, 0.117704, -0.042884, -0.128284, 0.037381, -0.029867, -0.069944, 0.031642, -0.051559, -0.202865, 0.143236, 0.061847, 0.046392, -0.019595, 0.050916, 0.093815, 0.147067, 0.016656, -0.06989, -0.105825, 0.100669, -0.118342, 0.143845, 0.045249, -0.008161, -0.033164, 0.101062, -0.059052, 0.069916, -0.041709, 0.051768, 0.059011, -0.045919, -0.149528, -0.028201, -0.051786, 0.042729, 0.014874, -0.147887, 0.051839, -0.030992, -0.16862, -0.070683, -0.094041, 0.092385, 0.03216, -0.004165, -0.174899, 0.013944, 0.022225, 0.078518, -0.137717, -0.027083, 0.175525, 0.12553, -0.041607, 0.225162, 0.04004, 0.194458, -0.106175, -0.004226, 0.023366, 0.096861, 0.055206, -0.004046, 0.165252, -0.264203, 0.046313, 0.070715, 0.032972, -0.053086, 0.009547, 0.052201, 0.106814, 0.104195, 0.033839, -0.069254, -0.098647, 0.209175, -0.02091, 0.006583, 0.041622, -0.082103, -0.042625, -0.097842, 0.044616, 0.042992, 0.085293, 0.045614, 0.116613, 0.078974, -0.021953, 0.040856, 0.041433, 0.164797, -0.229371, 0.100628, 0.094084, 0.024873, 0.028547, -0.024828, 0.08529, 0.056877, -0.059624, 0.00692, -0.0852, 0.072307, -0.147665, 0.125206, 0.24809, -0.055822, 0.083075, 0.06135, 0.179369, 0.020206, -0.049728, -0.045993, -0.026875, -0.202348, -0.181938, 0.056294, -0.167435, 0.086504, 0.043359, 0.232012, 0.043956, -0.013786, 0.206831, 0.038715, -4e-05, 0.013995, -0.124355, -0.122258, -0.01454, -0.222477, -0.242884, -0.059984, -0.057934, 0.028343, 0.032403, 0.138517, -0.03191, 0.117898, 0.042948, 0.00439, 0.067566, 0.114369, -0.148063, 0.037707, -0.017797, 0.036558, -0.089995, -0.02536, -0.190464, 0.168246, 0.014467, 0.053389, 0.056281, -0.010829, 0.074596, 0.05666, -0.096909, -0.026017, 0.056888, -0.041272, -0.458635, 0.143395, 0.070087, 0.122208, -0.019552, 0.030892, 0.201163, 0.076623, -0.090448, -0.044354, 0.030655, 0.117129, 0.126582, -0.045673, -0.096302, -0.001993, 0.067609, 0.13783, -0.083843, 0.126957, -0.096643, -0.053519, 0.094637, 0.011756, 0.100305, -0.049958, -0.058626, 0.030013, 0.045714, 0.154334, 0.01645, 0.044577, -0.037621, 0.149296, 0.114272, 0.028198, 0.074671, -0.089901, -0.067578, 0.076422, -0.065327, 0.015254, -0.190724, -0.019538, -0.032977, 0.404035, 0.01874, 0.027799, 0.036613, -0.034423, 0.052842, 0.13553, -0.119684, -0.027278, -0.06161, 0.011355, -0.020577, 0.000303, 0.121903, -0.086273, 0.0664, 0.070822, -0.048971, -0.046445, 0.096345, -0.010885, -0.078317, 0.000535, -0.02031, 0.003901, 0.13904, -0.027802, 0.088876, 0.047013, 0.079058, 0.039046, -0.003813, -0.094097, -0.044775, 0.062675, -0.088164, 0.120091, 0.09028, 0.124145, -0.054727, 0.09326, 0.018426, 0.08335, 0.096815, 0.094047, 0.161402, 0.080225, 0.03993, -0.057489, -0.091676, 0.00601, -0.047674, -0.272951, 0.074097, 0.033249, 0.008709, -0.081229, 0.044952, 0.209176, -0.044039, 0.055331, -0.024408, -0.008445, 0.081976, 0.024116, 0.069351, -0.069215, -0.087633, 0.097202, -0.03457, 0.084312, 0.023733, 0.048944, -0.064296, 0.149787, 0.013331, -0.085918, -0.024014, 0.023043, -0.072436, -0.069753, 0.044665, 0.016332, 0.162137, 0.020088, -0.036089, 0.070874, 0.111431, 0.047173, 0.039858, -0.098009, 0.017128, -0.010435, 0.064682, -0.05983, -0.037679, -0.006542, 0.075425, 0.010231, -0.088336, -0.006924, 0.034007, -0.019823, -0.063607, -0.007227, 0.037127, 0.083743, 0.016789, 0.093702, 0.006542, -0.082401, 0.104147, 0.022762, -0.105686, 0.091797, 0.062493, -0.068109, -0.021157, -0.100064, -0.068247, -0.038064, 0.07664, -0.008216, 0.04799, 0.121251, 0.124235, 0.125844, 0.034836, 0.036576, 0.080468, 0.12658, 0.027477, 0.12512, 0.031844, 0.018686, 0.045026, 0.063277, 0.001372, -0.007249, -0.0524, 0.079551, -0.046069, -0.08837, 0.106025, -0.120243, -0.114712, 0.034999, -0.075744, -0.025518, 0.035504, 0.09817, -0.118032, -0.044106, -0.087582, -0.003047, 0.098037, -0.076887, -0.138185, 0.212185, -0.009941, -0.09093, 0.130749, -0.080686, 0.045352, -0.038305, 0.073732, 0.010729, 0.113987, -0.019126, -0.060758, 0.156834, 0.024984, -0.012803, -0.036853, -0.027185, 0.152601, 0.045535, -0.070651, 0.154441, 0.080549, 0.005019, -0.030161, -0.019114, 0.05186, -0.02398, 0.106586, 0.028258, 0.111932, 0.015259, -0.016101, 0.04488, -0.025084, 0.065536, 0.063514, -0.087638, -0.041067, 0.074622, 0.03078, -0.068307, -0.01666, -0.01995, -0.050364, -0.098708, 0.080771, -0.002702, 0.051217, -0.129477, -0.069366, -0.009312, 0.149321, -0.167717, -0.145694, -0.116277, -0.009386, -0.017731, -0.062748, -0.023183, -0.025919, 0.133175, 0.02534, -0.071683, 0.032032, 0.007128, 0.099486, 0.001978, -0.249823, 0.058611, -0.083312, 0.034748, -0.023033, 0.028991, 0.026759, 0.052545, 0.027935, -0.060254, 0.039238, -0.096385, -0.006175, -0.003653, -0.172741, 0.070698, -0.026081, 0.004249, -0.15393, 0.068802, 0.061704, 0.02897, -0.122007, 0.132504, 0.001027, -0.061406, 0.043679, 0.002035, 0.022495, 0.061035, 0.03048, -0.026224, 0.007767, 0.089184, -0.039732, -0.068458, -0.114182, -0.077687, -0.146036, -0.021975, 0.00613, 0.052838, 0.001092, -0.028502, -0.030587, 0.046667, 0.009455, 0.048138, -0.011802, 0.050717, -0.057677, 0.127511, -0.000379, 0.116196, 0.156498, -0.041051, -0.113036, -0.01418, 0.063282, 0.055112, 0.037117, 0.018623, 0.170887, 0.109205, 0.003115, -0.07908, 0.057113, -0.063875, 0.048658, 0.060802, 0.059439, -0.111653, 0.111391, -0.000879, -0.071851, 0.065557, 0.015537, 0.014998, 0.030969, -0.037863, 0.041748, 0.048942, 0.031248, 0.137497, 0.043814, -0.00668, 0.067039, -0.020993, 0.006869, 0.013403, 0.006491, -0.057344, -0.047865, 0.105937, -0.025474, -0.028749, 0.134438, -0.053403, 0.014516, 0.073875, 0.115497, 0.009604, 0.087304, 0.070963, -0.014985, -0.058545, -0.00379, -0.058828, 0.047747, 0.099648, -0.02376, 0.000607, 0.050414, 0.059469, -0.026602, 0.082731, 0.003258, -0.105039, -0.094412, 0.078301, 0.089475, -0.06357, 0.077327, 0.031702, -0.033986, 0.041463, -0.034986, 0.084254, 0.065114, -0.192269, 0.047775, -0.158553, 0.116368, -0.008308, 0.036633, -0.021604, -0.109395, 0.052942, -0.015198, -0.133384, -0.048584, -0.090607, -0.034626, -0.032827, -0.0681, 0.005197, 0.013435, 0.128775, -0.04832, 0.080721, 0.132211, -0.076715, 0.055871, 0.027193, -0.010452, 0.10089, 0.071602, 0.025541, -0.135749, 0.0054, 0.08369, -0.01048, -0.087778, 0.048501, 0.01069, -0.044303, 0.049677, 0.066505, 0.043856, 0.001713, -0.034634, -0.020207, 0.058895, 0.040509, 0.060606, -0.053163, -0.016717, 0.0202, 0.125386, 0.0009, -0.057188, -0.075864, -0.148368, -0.011688, 0.084663, 0.088973, 0.113519, -0.049998, 0.024596, -0.005221, 0.140021, 0.043202, -0.063954, -0.092586, 0.079303, 0.04845, 0.080554, -0.048894, 0.044409, 0.079715, -0.072722, -0.114893, 0.095614, 0.018412, 0.001471, 0.107758, 0.09985, 0.045009, 0.016705, -0.048991, 0.048885, -0.019553, 0.016292, 0.045616, -0.06584, 0.065057, -0.041869, -0.107531, 0.087434, 0.074975, -0.041741, -0.153499, 0.071221, 0.032763, -0.053734, -0.038581, -0.017863, 0.095923, -0.080237, -0.042019, -0.083416, -0.140241, 0.086335, -0.115249, 0.07313, 0.100862, -0.102308, -0.027418, 0.118316, 0.000322, 0.057774, 0.045282, -0.093898, 0.003094, -0.104265, -0.091597, 0.119014, -0.038, -0.116844, -0.064535, 0.02468, -0.025724, 0.056244, 0.008267, 0.082501, 0.037815, 0.129189, 0.087556, 0.035437, -0.058164, 0.142086, 0.047397, 0.080389, 0.026484, 0.00157, 0.014385, 0.016417, 0.008126, 0.062186, -0.003002, 0.008153, 0.006262, -0.019527, 0.027107, 0.006953, 0.02314, 0.016765, 0.010831, -0.017584, -0.006651, 0.093071, -0.034904, -0.02643, 0.09818, -0.014065, 0.01253, 0.028095, -0.002366, 0.205086, 0.002046, -0.021535, -0.001098, 0.001905, 0.008187, -0.037544, -0.029175, -0.018828, -0.005092, 0.00238, -0.009076, -0.003701, 0.004291, -0.009696, -0.009232, -0.001088, 0.018255, 0.119435, -0.055766, -0.006428, 0.006828, 0.01215, 0.035626, -0.035703, 0.088186, -0.003306, -0.037515, 0.002945, 0.002527, -0.030231, -0.065261, 0.005705, 0.01338, -0.008215, 0.045703, -0.001797, 0.058754, 0.083836, 0.00036, -0.00952, 0.010901, 0.001016, 0.006626, -0.02192, 0.021808, -0.005834, 0.029484, -0.001433, 0.006991, 0.011004, -0.059857, 0.011689, -0.029336, -0.001885, -0.055246, 0.10269, -0.008413, 0.006811, 0.047557, 0.010425, 0.000567, -0.01514, 0.100246, -0.018208, -0.01479, 0.001739, -0.027316, -0.025049, 0.00381, -0.00801, 0.018917, -0.000554, 0.001861, 0.003764, -0.011321, -0.027871, 0.077083, -0.00509, 0.024272, 0.016417, 0.04451, -0.024672, 0.005117, -0.011677, 0.031604, -0.004437, 0.131341, -0.009023, 0.007168, 0.001628, -0.016826, 0.028745, -0.014015, -0.012937, 0.009057, -0.013482, 0.005322, -0.033384, -0.007397, -0.00934, -0.019789, -0.004319, 0.020982, -0.026846, -0.008961, 0.009202, -0.018865, -0.001745, 0.025552, -0.030647, -0.006148, 0.008936, 0.000954, -0.006222, 0.001203, -0.015065, -0.011367, -0.015507, 0.000559, -0.078962, 0.035686, -0.133422, 0.066216, 0.099065, -0.112013, 0.030193, -0.016376, 0.008582, 0.064523, -0.031261, 0.048189, -0.063948, 0.040193, -0.136705, 0.123774, 0.208888, 0.01612, -0.013787, 0.027872, -0.046458, 0.088092, -0.102015, -0.099085, 0.075078, -0.070159, 0.032564, -0.01145, 0.076745, 0.021474, 0.212103, -0.045579, 0.066145, -0.03685, -0.00061, 0.00548, -0.054414, -0.027837, 0.032357, 0.051489, 0.00134, -0.127395, 0.173617, 0.056038, 0.095238, 0.01016, 0.278209, -0.112535, 0.079798, -0.016889, 0.06206, -0.022212, -0.105439, 0.002469, -0.037248, -0.027536, 0.03824, 0.02346, -0.060096, -0.124908, -0.132015, -0.029288, -0.022829, -0.025381, 0.037734, 0.108071, 0.021423, -0.078001, -0.089861, 0.057886, 0.044815, -0.053316, 0.043633, -0.017637, -0.001763, -0.000766, -0.146391, -0.068163, -0.050176, 0.038626, -0.081911, -0.057808, -0.055339, -0.10312, -0.033942, 0.018633, -0.031607, -0.264166, -0.150065, 0.062977, 0.030382, -0.031755, 0.016462, -0.219099, 0.017515, -0.006992, -0.06628, -0.124035, -0.12324, -0.068901, 0.016567, -0.067288, -0.029625, 0.131055, 0.023445, 0.074585, 0.103343, 0.011528, 0.001086, 0.082785, -0.164971, 0.177272, -0.029708, -0.032523, 0.015535, -0.101069, -0.068933, 0.054838, -0.118221, 0.091206, 0.036526, -0.0507, 0.066322, 0.003328, -0.004376, -0.022001, 0.050812, -0.16363, -0.155502, -0.042106, -0.120225, -0.079455, -0.023309, -0.066881, 0.104458, -0.069068, 0.169741, 0.031169, 0.112874, 0.106525, 0.00845, 0.085976, 0.010914, 0.052105, 0.040041, -0.165951, 0.048921, -0.21516, -0.014091, -0.126221, -0.168511, -0.075464, 0.061316, -0.050863, -0.101895, -0.065492, 0.120832, 0.049238, -0.03781, -0.019587, -0.131673, -0.211068, -0.084476, -0.076608, -0.120752, -0.183944, 0.043026, -0.053249, -0.06031, -0.119977, 0.17827, -0.19867, 0.053523, -0.297265, 0.012965, 0.042286, 0.118961, 0.01819, 0.095572, 0.001311, 0.101864, -0.194631, -0.12219, -0.007559, 0.086444, 0.020841, 0.1524, 0.03562, -0.018403, -0.08903, -0.068634, 0.096938, -0.163155, 0.130082, -0.024728, -0.116289, 0.125035, 0.197101, -0.023359, -0.194675, -0.127043, 0.090496, -0.03294, 0.181719, 0.137613, 0.032894, -0.191057, 0.050397, 0.114536, -0.087848, -0.088938, 0.014422, 0.034136, -0.100986, 0.044593, -0.066009, 0.000412, 0.073422, -0.120143, 0.003726, -0.131573, 0.149251, 0.114702, 0.038742, 0.003434, 0.187689, 0.015309, -0.081005, -0.035318, -0.111763, 0.082559, 0.161621, 0.004895, 0.065103, 0.062451, 0.101598, -0.032292, -0.009943, 0.027454, 0.025777, -0.018508, 0.068643, 0.057429, -0.09016, -0.004611, 0.084274, 0.019597, -0.020616, -0.060796, -0.015237, -0.107173, -0.03606, 0.060648, 0.118405, 0.077164, -0.084495, 0.017161, -0.043971, 0.002378, 0.061225, 0.150645, 0.055814, 0.080434, 0.097114, 0.058686, -0.101764, -0.009653, -0.085552, 0.146203, -0.14679, 0.013906, 0.039504, -0.103967, -0.063936, -0.196859, -0.007387, -0.117062, 0.13154, -0.024031, 0.072403, 0.006485, -0.214978, 0.069593, 0.421288, 0.006586, 0.081985, -0.035359, -0.09919, -0.103881, 0.045683, 0.045798, -0.04969, -0.147149, 0.055267, 0.021884, -0.065788, -0.04636, 0.122096, 0.144776, -0.092788, -0.158409, -0.000669, 0.091126, 0.088821, -0.306769, 0.046637, -0.077393, 0.098549, 0.061725, -0.057855, 0.060398, 0.016644, -0.0414, 0.049832, 0.021795, -0.041484, 0.087527, -0.04545, -0.149902, 0.005827, -0.025341, -0.105005, -0.076482, -0.002887, 0.011942, 0.040813, -0.013381, 0.007416, 0.134807, 0.082375, 0.269444, 0.026305, -0.00728, 0.000544, 0.130434, -0.171742, -0.08634, 0.082481, 0.065187, 0.043524, -0.046643, 0.030429, 0.030059, 0.05876, 0.077208, 0.019595, -0.151665, -0.06404, -0.061869, -0.068675, -0.232492, -0.085788, 0.030558, 0.021682, -0.029178, 0.218415, 0.032497, 0.228103, -0.057249, -0.034484, 0.047275, 0.091271, 0.019976, 0.108734, -0.001043, 0.00203, -0.133954, -0.25729, -0.129398, -0.033473, 0.112825, 0.074119, -0.026579, -0.040086, -0.138189, -0.113616, 0.0254, -0.000646, -0.013129, -0.033073, -0.046278, 0.125941, -0.150773, 0.108132, 0.171439, 0.070286, -0.043771, -0.152473, 0.032406, 0.083602, 0.03748, 0.016508, 0.152402, 0.114067, -0.030652, 0.025229, 0.061965, -0.012097, 0.050485, -0.059348, 0.134771, 0.095094, -0.050543, 0.01549, -0.077535, 0.176872, 0.010632, -0.012982, -0.135474, -0.031105, 0.026835, 0.163125, 0.199238, -0.022731, 0.127417, 0.070204, -0.060236, 0.058596, 0.013133, -0.001148, -0.181061, -0.034899, -0.085233, -0.009101, -0.058401, -0.045593, 0.025086, 0.061649, 0.011922, 0.039061, 0.003555, -0.031421, 0.05662, -0.013796, -0.013832, 0.047318, 0.035984, 0.013314, 0.108994, 0.083132, -0.068246, -0.105679, 0.012582, 0.100465, -0.072492, -0.128211, 0.049292, 0.042773, 0.13735, 0.029403, -0.021785, -0.049962, 0.037782, -0.00759, 0.058184, 0.129165, -0.168901, -0.004506, -0.003285, -0.052412, -0.256594, 0.037998, 0.123288, -0.005479, -0.043929, 0.108674, 0.026207, 0.052291, 0.138686, 0.057422, 0.173393, -0.064289, -0.113407, 0.134172, -0.224847, -0.08407, 0.09615, 0.170761, 0.00613, 0.250882, 0.1074, 0.010943, -0.019757, 0.11478, 0.040786, 0.010197, -0.020158, -0.058097, 0.026026, -0.152696, -0.054127, 0.036728, -0.129274, -0.075513, -0.015679, -0.107686, 0.028021, -0.069283, 0.10957, -0.160891, -0.152223, -0.064835, 0.036711, 0.023044, 0.132195, -0.034885, 0.040245, 0.028127, 0.006255, 0.033149, -0.047039, 0.008527, -0.152084, -0.159034, 0.074194, -0.032349, -0.102342, 0.08233, -0.008167, 0.052818, 0.095468, -0.006596, 0.031978, -0.162089, 0.030176, -0.073819, 0.023545, 0.165246, 0.102646, -0.082884, -0.049886, 0.045473, -0.103471, -0.095463, -0.052945, 0.092241, 0.090133, 0.094484, -0.12899, 0.110889, 0.016028, -0.142399, 0.094921, 0.179477, 0.184957, -0.004111, 0.053246, -0.186182, -0.020578, 0.073095, -0.020194, -0.057144, 0.080182, 0.122158, 0.121817, 0.14133, -0.119773, 0.132209, 0.117665, 0.225453, 0.109749, 0.071153, -0.093877, 0.049745, 0.123976, 0.038929, 0.138729, -0.031243, -0.033739, 0.160813, 0.026515, -0.308742, 0.047018, -0.031188, 0.179239, 0.013043, 0.086396, -0.226628, 0.092896, -0.011744, -0.079971, -0.050575, 0.021648, 0.033654, -0.070616, -0.184242, 0.00857, -0.246096, -0.022214, -0.149395, 0.050323, 0.046116, 0.225751, -0.081775, 0.107949, -0.131544, 0.215484, 0.089233, 0.0595, 0.010909, 0.113851, -0.07761, 0.040064, -0.006004, -0.008499, -0.045844, -0.083663, 0.025796, 0.033166, 0.204252, 0.067975, 0.002362, 0.042193, 0.08367, 0.001373, 0.01574, -0.10687, -0.03923, -0.165817, 0.037405, -0.144687, 0.000859, 0.010921, 0.223962, 0.064336, 0.037476, 0.049306, -0.139238, -0.07413, -0.098844, -0.049492, 0.139966, -0.03348, -0.044104, 0.021615, -0.129521, -0.017984, 0.012372, 0.056046, -0.004743, -0.186327, 0.060532, -0.110049, 0.022372, -0.06611, -0.025529, 0.024021, 0.081873, -0.063926, 0.074625, -0.03335, 0.187181, -0.062575, 0.076827, -0.054589, 0.093119, 0.015842, -0.005111, -0.054571, 0.177032, 0.212073, -0.024576, 0.214052, -0.368183, -0.116198, 0.078134, 0.039044, 0.02492, 0.064852, 0.042364, -0.066816, -0.012269, 0.048841, -0.071331, -0.060079, 0.121634, -0.01282, -0.157512, -0.088156, 0.088396, 0.031699, 0.009621, -0.040503, -0.118088, 0.090462, -0.044296, -0.061873, 0.089475, -0.019298, -0.076323, 0.072139, 0.049699, -0.21052, -0.075597, -0.060385, -0.125597, 0.00438, 0.049702, 0.06826, 0.113356, -0.052944, 0.015681, 0.048459, 0.084061, -0.001933, 0.129689, 0.102362, 0.014392, 0.027997, 0.009641, 0.007331, -0.001441, -0.037729, -0.014093, -0.103528, -0.23032, -0.090628, 0.109402, 0.018218, 0.033935, 0.056722, 0.148402, 0.034803, -0.082339, -0.018476, 0.032875, 0.058183, -0.046278, -0.16436, -0.044917, 0.120919, -0.084467, -0.204319, -0.009646, -0.085412, -0.056582, -0.117331, 0.096047, -0.09558, 0.025803, -0.06147, -0.009081, 0.050176, 0.031835, 0.053139, -0.011327, 0.04344, 0.048831, -0.144478, 0.152739, -0.029382, 0.044685, 0.032827, 0.110091, 0.042364, 0.086024, 0.009053, 0.033776, -0.015491, -0.009501, 0.03769, -0.044202, -0.271856, -0.033034, -0.083395, -0.003566, 0.037555, -0.048541, 0.055023, -0.106377, 0.045844, 0.07816, 0.079785, 0.121223, -0.014313, 0.159274, -0.04947, -0.063211, 0.027242, 0.144956, -0.07664, -0.018715, -0.095839, 0.128906, 0.157771, -0.213123, -0.039764, -0.11887, 0.078509, 0.05257, -0.017169, 0.148304, -0.045765, -0.134246, 0.073737, 0.169225, 0.069409, 0.098744, 0.103241, -0.099577, 0.046098, -0.008737, 0.103263, 0.029135, -0.159959, -0.100655, -0.16282, 0.350617, 0.04124, -0.016829, -0.016071, 0.050237, 0.013489, 0.038313, -0.054668, -0.02108, 0.135058, -0.08337, 0.050081, 0.054928, -0.047365, -0.036827, -0.059057, -0.024507, 0.042565, 0.001291, -0.036879, -0.025254, 0.015596, 0.017132, -0.002346, -0.036895, -0.033566, 0.121907, 0.074906, 0.069263, 0.085028, -0.335188, 0.018914, -0.00673, 0.00771, 0.014217, -0.203616, 0.027719, 0.144463, 0.102885, 0.007129, 0.14751, 0.090408, 0.001078, 0.25838, 0.045129, 0.097476, 0.032866, 0.031216, 0.062508, -0.041484, 0.037557, -0.052062, -0.29792, -0.091652, -0.02495, 0.024832, -0.068667, -0.053824, 0.159086, 0.081368, -0.007628, 0.004105, 0.047404, 0.047552, 0.134966, -0.054057, 0.1012, 0.021259, 0.141191, -0.005418, 0.051767, -0.068328, -0.099462, -0.063667, 0.066974, 0.091388, 0.062335, 0.0438, 0.082201, 0.002701, -0.03465, 0.016284, 0.113325, 0.113541, -0.035139, 0.07334, -0.051517, 0.00398, 0.12625, 0.101798, -0.112248, -0.087792, -0.007722, -0.080412, -0.038462, 0.030018, 0.001566, 0.140633, -0.047024, -0.059822, 0.002106, 0.192952, 0.004867, 0.059528, 0.025755, 0.013681, -0.084883, 0.034891, -0.058864, -0.090141, -0.115174, 0.070024, -0.02291, 0.026893, 0.128766, -0.02517, 0.081653, -0.119875, -0.023067, -0.013363, -0.166772, -0.041731, -0.011607, -0.042526, -0.074415, 0.08339, -0.056687, 0.105404, -0.042122, 0.071229, 0.128601, 0.021673, 0.044707, -0.057506, 0.029299, 0.102837, -0.011183, 0.015986, 0.02131, 0.045903, 0.119257, 0.011893, 0.026242, 0.005411, -0.092612, -0.041715, -0.008154, 0.039677, -0.026243, -0.019904, 0.017398, -0.062198, -0.025352, 0.011795, -0.025461, 0.187589, -0.027577, -0.017764, 0.137266, -0.120381, -0.03952, 0.095641, 0.037122, 0.078416, 0.117007, -0.134957, 0.089505, 0.01498, -0.045156, 0.037709, 0.025033, -0.105318, 0.037653, 0.041898, -0.010226, 0.044046, 0.008564, -0.033582, -0.041911, -0.010187, 0.026001, 0.01733, -0.044797, 0.000103, 0.107707, 0.14919, 0.131358, 0.048892, -0.110172, -0.083037, -0.081246, -0.17573, 0.07773, 0.044753, -0.079288, -0.031931, -0.067462, -0.089554, -0.10093, 0.052736, 0.062306, 0.029451, 0.056676, 0.098983, -0.056518, -0.100726, -0.115845, 0.078496, -0.1355, 0.028086, -0.142491, -0.130978, -0.105584, 0.041027, -0.148421, 0.064582, -0.079958, -0.140588, 0.108776, 0.038251, -0.081076, -0.072058, 0.146865, 0.103302, 0.050485, -0.136517, 0.139598, 0.003144, -0.036053, -0.050055, -0.076088, -0.165804, 0.056511, 0.071614, -0.129722, 0.007638, -0.111632, 0.163843, 0.012148, -0.06053, 0.143884, 0.074794, 0.061027, -0.355844, -0.044482, -0.086535, 0.049247, -0.159814, 0.124242, 0.003245, -0.057413, -0.045381, 0.100722, 0.124841, -0.017446, 0.061603, -0.08963, 0.021455, -0.041771, 0.091617, 0.079395, -0.071519, 0.12501, -0.079528, 0.064993, -0.024309, -0.078064, 0.02558, -0.00071, -0.07669, 0.03756, 0.113092, 0.070432, -0.030178, 0.177303, 0.030521, 0.105479, 0.043137, -0.104038, -0.056593, -0.062357, 0.00744, 0.029161, 0.085406, -0.087362, -0.033769, 0.175893, -0.097727, 0.050176, -0.039777, -0.085012, -0.096428, -0.109252, 0.01363, -0.051705, 0.04577, -0.009911, 0.034631, 0.04927, -0.075733, 0.055401, 0.079834, 0.095442, 0.100344, -0.05993, 0.066481, 0.032165, 0.036513, 0.079874, -0.026095, -0.05422, 0.031821, -0.011691, 0.174334, 0.132368, 0.01128, 0.082418, 0.02895, -0.062544, -0.03543, 0.077164, -0.05642, 0.128667, -0.063674, 0.130186, 0.058405, -0.021417, 0.136466, 0.121211, 0.093801, 0.058072, -0.094112, -0.024816, -0.003521, 0.025201, -0.210125, -0.04768, 0.061463, 0.035488, -0.007899, -0.081691, 0.123937, -0.01226, 0.132915, -0.023304, 0.15813, -0.292947, -0.012101, -0.031383, -0.13472, -0.036058, -0.126579, 0.10281, 0.154206, -0.104817, 0.053486, -0.173803, -0.089816, -0.062069, -0.056726, -0.048502, -0.059891, -0.117787, -0.066451, -0.146497, 0.097647, -0.080664, 0.034993, 0.097186, -0.061927, -0.090735, 0.079999, 0.018092, -0.050552, 0.144148, -0.070393, -0.161935, -0.169654, 0.207689, 0.01853, 0.11466, 0.123996, -0.088573, -0.111263, -0.018722, -0.107542, -0.002978, -0.09043, 0.031615, 0.101303, -0.13472, -0.078468, -0.090743, -0.003709, 0.072982, 0.03551, -0.060399, 0.052594, -0.018639, 0.016117, 0.004176, 0.087414, 0.012377, -0.029311, 0.032535, -0.110214, -0.114737, -0.126553, -0.037497, -0.001712, 0.005054, 0.093307, 0.157736, 0.127746, 0.145567, 0.056512, 0.032174, 0.077958, 0.002325, -0.025826, 0.083115, 0.060961, -0.003078, 0.110178, 0.019759, 0.006408, -0.056404, -0.027396, 0.106206, 0.095861, 0.170554, -0.047566, 0.179518, 0.006211, -0.018412, 0.03359, 0.049693, 0.102538, 0.002889, 0.039169, 0.113345, 0.111671, -0.064628, -0.040874, 0.059211, -0.099113, -0.085149, 0.063902, -0.012475, -0.117578, 0.109498, -0.133262, 0.084329, 0.035517, -0.012478, -0.03861, -0.022971, 0.060976, -0.020295, -0.018918, 0.177558, -0.262592, 0.091551, 0.131404, -0.02251, 0.156079, -0.050501, 0.04186, -0.01101, -0.063606, -0.01661, 0.061881, -0.001859, -0.12525, 0.011927, 0.008141, 0.072484, 0.09145, 0.075735, 0.009464, 0.038424, 0.09938, 0.162204, 0.059149, -0.078885, 0.12553, -0.003306, -2.4e-05, 0.146935, -0.093463, 0.101593, -0.075356, -0.028718, -0.06068, -0.058437, 0.140612, -0.011156, 0.00533, -0.045607, -0.066972, -0.000265, 0.075322, -0.053046, -0.068311, -0.010502, 0.023371, 0.074509, -0.039288, 0.034572, -0.129825, 0.047072, -0.01593, -0.036284, 0.020612, -0.112572, -0.012031, 0.046757, -0.037502, -0.034739, 0.039785, 0.022229, 0.046709, -0.06952, -0.124753, -0.055293, -0.006701, 0.017238, 0.001853, -0.028802, -0.065768, -0.087094, 0.069161, -0.004802, -0.091904, 0.041862, 0.018509, 0.08238, -0.031749, -0.044838, 0.00819, -0.002991, -0.051564, -0.008363, -0.018214, -0.005588, -0.053203, 0.038954, -0.046992, 0.03241, -0.023658, 0.021566, 0.124531, 0.118661, -0.035922, -0.135183, -0.103405, -0.010885, 0.019849, -0.073728, 0.042651, 0.02074, -0.116481, 0.015268, 0.051354, -0.095493, 0.033192, 0.031851, -0.069185, 0.094544, 0.012604, 0.10845, -0.083639, -0.053065, -0.033776, 0.001697, -0.062008, 0.02542, -0.029045, -0.033767, -0.065118, 0.07291, -0.024353, -0.071443, -0.072491, -0.132733, 0.003534, -0.06452, 0.030276, 0.026641, 0.029545, -0.000221, 0.040296, -0.065702, 0.106795, -0.034359, 0.088972, -0.106204, 0.08636, -0.002682, -0.047749, 0.077645, -0.02069, 0.105703, -0.089472, -0.07005, 0.001394, -0.0509, -0.10281, 0.102866, -0.098532, 0.011951, 0.053391, -0.06, 0.019685, 0.05467, -0.025109, -0.044923, -0.008444, -0.035962, 0.144241, 0.085365, 0.037673, 0.019901, -0.070317, -0.009646, -0.025631, 0.042239, -0.007146, 0.116087, 0.057905, 0.056208, 0.009566, -0.018082, -0.112564, 0.044862, -0.074273, -0.06919, 0.090338, 0.022467, 0.007266, -0.041443, 0.089344, -0.092504, -0.018807, 0.155949, 0.133703, -0.082336, -0.025679, 0.191982, 0.255741, -0.002934, 0.140666, 0.137224, -0.078545, -0.032997, -0.162313, -0.066409, -0.058552, 0.008184, 0.034801, 0.034814, -0.018439, -0.052016, 0.023915, -0.014305, 0.002276, 0.013911, -0.063254, -0.047811, -0.012996, -0.046254, 0.047654, 0.04247, -0.07427, -0.184658, 0.095606, 0.032643, 0.143454, 0.091542, 0.136219, -0.080409, 0.072186, 0.048881, -0.047214, -0.060128, -0.187741, -0.140481, 0.050634, 0.09831, 0.083708, 0.200156, -0.078725, -0.113652, -0.004526, 0.04691, 0.029659, -0.039805, -0.110329, 0.20083, 0.085519, -0.080017, 0.035793, 0.159036, 0.147943, -0.111705, -0.019567, 0.012756, -0.107096, -0.013665, 0.003777, 0.065839, 0.018604, -0.018565, -0.075737, -0.003805, -0.040673, -0.14159, 0.012723, 0.034791, 0.085679, -0.284471, -0.159849, -0.014973, 0.152211, -0.108221, 0.030002, -0.120587, 0.081956, -0.086094, -0.098912, -0.084958, -0.073894, -0.036585, -0.044242, 0.033534, 0.0314, 0.00955, -0.07314, -0.036508, 0.113678, 0.117757, -0.08557, 0.028243, -0.174818, 0.080008, -0.075659, -0.027177, 0.060526, -0.11719, -0.111859, 0.17224, -0.098885, 0.004023, -0.010347, -0.075382, 0.094284, 0.120757, -0.034176, -0.013498, -0.012995, -0.081917, -0.090422, -0.01228, 0.036094, -0.057563, 0.045208, -0.012121, 0.021168, -0.037432, 0.144565, -0.119476, 0.009824, 0.059101, 0.044804, 0.080394, -0.008498, 0.048039, 0.056274, -0.148812, -0.004576, -0.184533, -0.060533, -0.093331, -0.03725, 0.045589, 0.041875, -0.013072, -0.148152, -0.0925, 0.099311, 0.112526, 0.121958, -0.062038, -0.179705, -0.257685, -0.101682, -0.069652, -0.009831, -0.130867, 0.175695, 0.01033, -0.009183, -0.09144, 0.089638, -0.065887, -0.054376, -0.149611, -0.163183, -0.04825, -0.013145, -0.244582, 0.085639, 0.047455, 0.229766, -0.10244, -0.082844, -0.01023, 0.019259, 0.03, 0.038713, -0.103015, -0.026657, -0.043515, -0.123338, 0.041392, -0.071163, 0.198429, 0.078999, -0.138084, 0.167153, 0.23782, -0.096578, -0.08873, -0.218952, 0.010782, 0.009438, 0.002008, 0.031078, 0.189389, 0.013292, 0.113343, -0.001911, 0.038119, -0.212521, -0.096074, 0.021765, -0.059853, -0.045536, 0.110321, -0.088499, 0.056739, -0.022526, 0.004858, -0.043913, 0.13886, 0.020262, -0.127958, -0.204354, -0.058123, 0.029447, -0.044953, 0.04042, 0.064134, 0.145636, 0.193341, 0.192845, 0.045804, -0.064914, -0.031097, 0.048933, -0.027178, 0.089437, -0.034835, -0.189267, 0.066782, -0.128786, -0.075324, 0.070353, 0.041907, 0.075735, -0.037714, -0.080011, 0.056469, -0.021752, -0.133547, -0.057131, 0.062988, 0.168232, -0.017675, -0.052534, 0.162408, -0.116864, 0.042959, 0.234721, -0.002678, -0.02542, 0.028501, -0.155979, 0.030287, 0.001746, 0.138688, 0.109073, -0.193373, 0.145585, -0.107025, -0.100411, -0.157795, -0.203469, 0.079348, -0.038304, 0.173302, -0.112771, 0.152704, -0.057236, -0.18772, 0.05491, 0.435389, -0.064321, 0.056418, 0.079519, 0.047788, -0.047215, -0.14902, -0.047711, -0.026395, -0.04697, -0.028112, -0.106865, 0.023313, 0.106906, 0.066485, 0.193589, -0.248444, -0.199453, 0.053919, 0.005507, 0.031048, -0.1026, 0.032361, -0.066792, 0.180583, -0.024258, 0.024521, 0.049539, -0.086065, 0.083592, 0.013931, 0.131732, -0.167107, 0.055264, -0.206115, -0.101954, 0.025381, 0.039813, 0.022292, -0.080605, 0.012279, -0.036074, -0.002542, -0.038497, -0.083138, 0.058673, -0.047285, 0.213812, -0.073525, 0.19072, 0.11229, 0.185453, -0.135432, -0.17456, -0.050826, 0.142297, 0.02196, -0.042548, 0.068143, -0.021884, 0.054501, 0.162198, 0.076946, -0.066172, -0.114283, -0.049409, -0.11512, -0.214586, 0.061265, -0.080807, 0.090887, 0.015998, 0.131955, 0.066981, 0.186294, -0.131183, 0.043835, 0.074337, 0.04715, 0.047116, 0.038025, -0.001454, 0.033602, -0.105906, -0.243929, -0.010754, -0.074204, 0.131143, 0.009027, -0.148308, 0.093258, -0.165201, -0.098422, -0.02256, 0.144958, 0.090563, -0.010207, -0.051143, 0.119069, -0.213916, -0.051265, 0.154258, 0.0145, -0.043677, -0.189352, 0.123972, 0.078092, 0.011434, -0.019425, 0.030379, 0.056794, 0.057083, -0.062703, -0.008121, 0.008561, -0.21965, 0.077516, 0.061777, 0.010789, -0.085789, 0.032883, -0.041717, 0.000655, 0.053688, 0.042615, -0.076357, -0.19193, -0.086755, 0.090312, 0.199219, 0.048463, 0.099354, 0.031034, 0.000561, 0.121178, 0.090534, -0.010519, -0.161489, -0.042584, 0.092692, 0.062498, -0.09309, 0.106508, 0.03092, -0.003099, 0.011846, -0.099524, -0.043531, 0.023569, -0.016005, 0.007645, -0.050237, 0.079962, 0.068118, 0.086984, 0.184691, 0.054869, -0.010654, -0.069149, -0.074995, 0.163531, -0.070343, -0.075678, -0.047964, 0.147723, 0.180906, -0.014999, 0.082945, 0.025413, -0.221833, -0.013685, 0.027863, 0.027657, -0.209473, 0.02552, -0.13397, 0.088599, -0.17218, -0.076653, 0.312209, 0.029032, 0.04207, -0.022558, 0.03556, 0.052672, -0.078829, 0.026136, 0.244321, 0.069191, 0.019128, 0.138616, -0.10886, -0.033581, 0.094148, -0.066325, 0.095358, 0.189909, 0.126303, -0.00199, 0.008102, 0.036889, -0.020668, 0.1697, -0.023935, -0.099653, 0.05098, -0.110227, -0.119254, -0.081257, -0.204666, -0.138763, -0.095108, -0.176171, 0.054341, 0.014127, 0.164759, -0.004507, -0.069761, 0.004347, 0.027362, -0.115822, 0.000746, 0.06768, 0.063949, 0.069607, 0.038495, 0.058554, -0.08473, 0.191148, -0.136903, -0.06026, 0.132102, -0.061963, -0.248354, -0.039698, 0.036493, -0.164825, 0.050824, 0.064961, 0.017132, -0.159846, -0.06674, 0.046868, 0.010737, -0.043401, -0.020358, -0.14414, 0.080974, 0.092375, -0.096277, -0.04142, 0.110809, 0.051046, -0.057649, 0.26037, -0.114559, 0.024014, -0.000587, -0.123953, 0.131275, 0.088103, 0.088318, -0.100233, -0.035656, -0.281862, 0.080862, 0.074517, -0.03049, 0.013559, 0.086302, -0.153609, 0.105581, 0.108979, -0.060201, 0.008153, 0.13511, 0.185201, 0.087464, -0.12959, -0.071038, -0.074243, 0.048034, 0.059764, -0.037088, -0.12602, -0.086332, 0.001412, -0.07863, -0.373954, 0.022028, -0.031932, 0.137794, -0.016348, 0.021453, -0.139798, 0.242907, 0.083205, 0.110239, 0.019237, -0.021036, 0.005364, -0.047472, -0.190229, 0.00229, -0.116715, -0.004625, -0.154578, 0.029479, 0.068046, 0.016124, -0.165285, -0.007087, -0.053497, 0.220402, -0.009947, -0.063077, -0.159631, 0.105495, 0.005184, 0.091022, -0.019038, -0.126629, -0.027955, -0.124062, -0.013165, 0.031481, 0.21602, -0.069283, 0.051857, -0.02384, 0.189201, 0.00629, -0.120386, 0.020573, 0.030835, -0.086947, 0.159917, -0.077835, 0.087142, 0.037444, 0.190976, 0.040562, 0.19151, 0.005945, 0.078304, -0.12979, -0.238358, -0.016731, 0.136803, -0.025506, -0.124925, -0.053183, -0.1978, 0.081729, -0.013498, 0.037171, 0.037295, -0.099891, -0.111167, -0.16406, -0.020166, -0.121835, 0.065186, -0.019346, 0.029926, -0.149109, 0.001276, 0.138993, 0.140539, 0.073788, 0.007119, -0.046481, 0.067227, 0.065282, -0.036098, 0.136797, 0.165895, 0.063001, -0.045695, 0.100855, -0.27656, 0.065862, 0.032081, 0.092443, 0.096776, 0.170012, 0.034055, -0.118319, 0.110184, 0.039944, -0.089905, 0.024822, 0.190366, 0.02349, -0.074851, 0.088713, -0.057556, 0.047483, -0.06505, -0.138812, -0.138806, 0.091731, 0.029119, -0.041859, 0.16637, 0.013815, -0.087437, -0.045426, 0.033727, -0.201882, -0.233388, 0.055448, -0.005529, 0.075842, 0.117887, 0.057543, 0.000393, -0.145914, -0.066255, -0.02997, 0.123485, -0.011776, 0.180524, 0.105717, 0.039052, 0.090335, -0.003701, -0.031022, -0.129386, -0.07204, 0.050884, 0.017645, -0.225651, 0.045064, 0.105037, -0.038916, -0.008373, -0.000934, 0.056743, 0.121315, -0.028147, 0.05957, 0.087194, 0.08961, -0.071945, -0.130184, -0.057215, 0.031954, 0.014178, -0.248482, -0.023497, -0.043405, -0.073145, -0.074311, -0.04113, -0.008902, 0.007514, 0.042367, 0.077963, 0.000812, 0.113978, 0.088705, -0.144724, -0.151547, 0.024012, -0.058599, 0.138217, 0.160309, 0.060171, 0.063809, 0.15025, -0.050762, 0.106143, -0.183468, 0.016247, 0.061729, 0.049824, -0.023819, -0.115718, -0.130703, -0.026436, 0.088679, 0.159168, -0.048345, -0.005001, 0.042547, 0.026367, 0.064285, -0.127631, 0.183165, 0.15801, -0.008675, 0.016601, -0.047707, 0.013979, 0.067261, 0.070584, -0.00695, 0.015141, 0.090085, -0.082154, 0.066806, -0.174924, 0.095053, -0.126228, -0.06097, -0.03324, 0.024438, 0.166416, 0.087288, 0.023569, 0.033774, -0.088227, 0.10424, -0.03392, 0.087003, -0.060207, 0.245559, -0.050048, 0.169695, 0.020564, -0.072142, -0.032339, -0.22781, 0.262201, 0.119317, -0.013179, -0.035956, -0.003627, 0.017632, 0.099748, -0.025137, -0.216732, 0.138586, 0.081002, -0.063829, -0.024145, 0.077348, -0.14477, 0.052474, -0.105195, 0.103374, -0.027165, 0.090014, -0.02517, 0.082878, -0.072747, 0.020556, -0.104881, 0.083323, 0.022163, 0.139813, 0.113836, 0.002536, -0.390025, 0.015563, 0.074456, -0.011141, 0.017133, 0.020445, -0.116249, 0.055844, 0.035484, -0.030484, 0.20841, 0.124478, -0.068992, 0.273071, 0.197079, -0.218386, 0.142103, 0.051156, -0.030892, 0.03153, 0.057527, -0.084466, -0.244326, 0.090249, -0.172979, -0.074349, -0.019464, -0.031781, 0.111293, 0.124988, -0.032977, 0.051004, 0.010281, 0.035336, 0.213135, 0.016642, -0.051446, -0.091513, 0.038241, -0.114103, -0.007294, -0.076413, 0.047997, -0.107097, 0.026158, 0.101085, 0.200604, 0.036908, 0.132947, -0.061425, -0.051684, 0.11946, 0.051515, 0.159453, 0.019533, 0.123851, 0.01271, 0.010975, 0.090302, 0.029376, 0.007828, -0.017841, -0.012232, -0.179546, -0.19561, -0.062661, -0.025393, 0.006998, -0.029988, -0.097578, 0.012783, 0.076968, -0.043528, -0.099296, -0.035152, -0.056849, -0.008498, -0.074386, -0.025269, -0.027686, -0.146602, -0.058533, 0.095027, 0.081148, 0.024049, -0.024894, 0.16845, -0.174682, 0.000546, 0.005937, -0.12518, 0.134036, -0.075069, -0.116215, 0.051713, 0.082517, 0.025558, 0.124664, -0.069809, 0.010315, 0.208956, -0.037941, 0.081584, 0.097377, 0.007233, -0.092879, 0.06281, -0.012038, 0.101907, 0.032149, 0.012404, -0.020992, 0.122663, 0.004828, -0.035599, 0.025946, 0.021272, 0.000145, -0.054265, 0.102973, -0.067522, -0.006484, -0.164872, -0.121218, -0.143188, 0.119284, 0.033931, 0.034847, 0.088244, 0.029087, 0.045336, 0.197653, 0.00687, 0.03102, -0.066628, -0.079142, 0.112983, 0.115974, -0.035145, 0.008306, -0.026768, -0.042296, -0.146568, -0.027574, 0.031355, -0.027814, 0.109212, 0.01505, 0.082223, 0.044778, -0.092707, 0.05622, 0.129234, 0.129443, 0.046644, 0.019323, -0.033976, 0.013879, -0.06768, 0.083795, -0.075055, -0.015566, -0.120014, -0.040355, -0.127405, -0.023296, -0.041579, 0.050603, -0.217691, -0.081668, -0.07012, 0.103443, 0.085021, -0.002518, -0.074299, -0.055993, 0.009791, 0.046639, -0.071221, 0.00961, -0.273012, -0.059963, -0.11112, -0.194704, -0.089457, -0.096434, 0.059568, -0.213748, 0.013022, 0.098986, -0.033232, -0.03655, 0.023259, 0.174911, 0.011294, -0.053559, 0.11361, -0.022389, -0.180128, 0.044929, -0.053829, -0.03323, 0.05316, -0.049851, -0.007014, 0.007306, 0.145052, -0.136403, -0.004134, 0.059747, 0.220663, 0.093133, -0.056674, -0.34142, -0.091612, 0.044358, 0.11041, -0.204116, 0.043806, 0.127666, -0.122408, -0.089306, 0.087744, 0.017045, 0.098764, -0.006442, -0.079356, 0.026527, 0.025133, 0.04169, -0.054443, 0.025063, 0.033268, -0.022598, -0.10122, -0.037093, -0.071217, 0.068743, -0.102221, -0.050491, 0.054133, -0.006806, 0.166845, -0.046469, 0.172905, -0.035495, -0.076552, 0.032517, 0.023646, 0.130775, -0.09458, -0.056687, -0.170702, 0.002784, 0.00064, -0.023741, -0.018317, -0.208429, 0.209484, 0.083223, -0.033987, -0.185194, -0.130089, 0.149846, -0.058219, -0.008965, 0.097117, 0.059514, 0.009636, -0.063663, -0.018184, -0.019875, 0.033497, 0.176021, -0.007356, -0.085272, 0.090455, 0.012278, 0.153805, 0.01429, 0.005365, 0.153408, -0.004558, 0.061172, 0.145255, -0.097753, 0.121674, 0.06184, 0.015405, 0.095753, 0.155172, -0.021711, -0.068583, -0.013346, -0.044205, 0.028406, -0.113982, 0.185463, 0.228883, 0.113541, 0.011991, -0.074189, 0.089368, 0.110713, 0.013078, -0.015516, -0.119241, 0.102698, 0.011878, 0.059277, -0.024987, -0.005469, 0.05101, 0.03131, -0.068379, 0.205563, -0.199949, 0.023181, -0.03203, -0.140696, 0.032377, -0.109377, -0.063746, 0.085012, -0.023012, 0.091064, -0.12351, -0.074643, -0.098784, -9.7e-05, 0.057586, 0.062569, -0.045752, -0.038867, -0.180011, 0.037796, -0.074661, 0.056517, -0.037591, -0.002593, -0.034187, 0.077289, -0.045293, -0.155529, 0.046217, -0.080192, -0.074061, -0.086874, 0.141666, -0.029292, 0.215532, 0.041588, -0.048214, -0.157276, -0.031268, -0.01399, -0.075282, -0.199197, 0.04982, 0.070924, -0.06864, -0.022178, -0.063014, -0.118156, 0.025166, -0.08538, 0.007034, -0.009475, -0.044135, 0.082683, -0.09543, 0.110395, 0.146736, 0.109517, 0.034744, -0.027997, -0.018554, -0.071986, 0.06236, 0.132964, -0.152306, 0.054172, 0.01881, 0.078393, 0.046281, 0.005367, 0.068963, 0.03711, -0.100447, 0.057242, 0.048594, 0.072049, 0.045113, 0.140647, 0.020195, -0.039512, 0.047919, -0.065822, 0.064258, 0.01906, 0.00587, -0.128865, 0.10461, -0.056514, -0.003575, -0.039264, 0.10232, 0.009031, 0.027233, 0.043993, -0.054121, 0.073104, -0.03726, 0.112202, 0.119497, -0.062058, -0.006418, 0.06848, 0.028459, -0.009151, 0.163939, -0.043283, -0.045911, 0.027706, 0.030769, 0.047302, -0.059784, 0.040092, 0.071666, 0.003937, 0.120988, -0.143436, -0.072197, 0.042148, 0.016174, 0.020672, -0.051799, 0.04966, -0.042296, -0.004332, -0.038426, -0.023819, -0.100042, 0.023555, -0.038236, -0.118812, -0.034355, -0.093153, -0.039953, 0.122921, -0.036774, 0.109223, -0.017455, 0.049853, 0.08074, -0.070672, 0.011517, -0.030035, -0.035858, -0.03946, 0.085641, -0.087669, -0.052118, -0.026001, -0.027001, 0.097356, 0.08027, 0.074236, 0.130029, -0.063584, 0.118865, 0.043655, -0.024225, -0.068747, -0.039813, 0.011994, 0.086556, -0.030243, 0.063903, -0.014861, -0.047799, -0.082271, 0.089953, 0.13239, -0.051747, -0.027264, -0.033065, -0.076723, 0.022668, 0.034494, -0.125793, 0.080801, 0.155788, -0.06224, 0.034328, -0.06023, 0.10549, 0.05114, 0.023256, -0.046201, -0.055919, 0.140667, 0.024876, -0.000734, 0.065531, 0.073418, -0.035216, -0.057683, 0.011207, -0.047074, -0.087566, -0.001244, 0.048055, -0.038114, -0.025807, 0.085776, 0.020826, 0.027164, 0.020151, 0.047104, -0.06932, 0.092747, 0.100858, 0.073781, 0.017638, -0.019126, -0.096705, -0.071737, -0.034044, 0.032945, 0.013324, -0.003444, 0.051748, 0.011193, 0.006894, -0.053938, 0.008728, 0.054668, 0.029127, 0.098469, 0.009528, -0.015954, -0.046128, -0.039816, 0.058451, 0.055177, 0.035729, 0.028857, -0.0054, -0.01819, 0.016671, -0.055826, 0.107158, 0.059006, -0.046976, 0.063969, -0.02481, 0.028075, 0.039879, -0.026265, -0.060904, -0.039108, -0.040253, 0.006746, -0.00036, -0.020789, -0.098065, -0.09828, -0.079592, 0.066683, -0.01184, -0.001235, 0.004223, -0.009462, 0.066559, -0.011199, -0.070594, -0.047842, -0.061362, 0.053345, -0.041613, -0.01179, 0.019052, 0.05063, 0.054127, -0.055426, 0.006021, -0.05617, 0.008304, 0.014784, -0.057838, 0.025202, -0.080602, -0.051004, -0.097581, 0.014157, 0.088476, 0.016763, 0.049062, 0.012838, 0.002192, -0.02676, -0.0122, -0.06516, 0.120414, -0.042244, -0.070383, 0.004376, -0.037629, 0.067883, -0.067735, 0.015261, 0.069893, -0.056325, -0.019254, 0.227766, 0.01422, -0.16579, 0.084499, 0.102271, -0.06182, 0.157827, 0.151265, 0.088266, -0.145228, -0.121101, -0.063829, -0.075091, -0.157854, -0.019754, -0.064093, 0.023707, -0.129303, -0.152862, -0.158663, -0.09067, 0.099666, 0.096877, -0.011379, -0.00364, 0.014017, -0.038742, -0.020108, -0.133193, -0.168635, -0.078366, 0.025805, -0.03493, 0.027579, -0.085701, -0.085871, 0.049598, -0.033272, -0.062934, -0.000516, -0.238511, -0.222014, -0.120108, 0.074012, 0.109005, 0.139984, -0.055014, 0.048363, -0.090069, 0.010123, -0.025177, 9.4e-05, 0.018354, 0.066394, 0.003325, 0.013938, 0.071184, 0.086854, 0.177606, -0.090713, 0.115294, -0.026416, 0.009474, -0.041794, -0.067202, -0.035343, 0.175001, -0.003671, -0.042036, 0.00735, -0.050963, -0.084952, -0.066759, 0.074036, -0.029278, -0.112398, -0.034152, -0.060767, 0.145309, 0.122716, 0.078508, -0.144255, 0.154131, 0.090351, -0.136482, -0.130054, -0.092414, -0.005175, -0.042379, 0.018109, 0.029413, 0.113037, -0.067882, -0.098524, 0.014615, 0.074935, -0.146435, 0.096594, -0.147444, -0.104586, -0.07405, -0.008541, 0.051156, -0.099879, -0.019667, 0.159431, -0.150976, -0.016783, 0.110454, -0.07321, -0.040149, 0.079102, 0.029927, 0.114633, -0.09364, -0.112305, -0.000633, 0.005444, -0.018715, -0.121236, 0.137434, 0.094658, -0.096867, -0.099162, 0.147462, -0.088291, 0.063127, 0.060028, -0.054353, 0.086391, 0.008388, -0.020403, 0.099945, -0.11956, -0.188084, -0.013324, 0.088122, -0.129659, -0.093077, -0.006362, -0.147904, 0.195686, 0.078558, 0.107622, -0.000827, 0.109113, 0.099686, 0.000176, -0.162274, -0.207288, -0.114798, 0.020851, -0.041447, -0.009206, 0.001627, -0.095308, 0.094538, 0.009868, 0.176647, 0.000582, -0.140981, -0.107649, -0.066334, -0.132444, 0.022774, -0.328333, -0.056091, -0.112457, 0.27765, -0.028657, 0.028965, -0.009574, -0.110841, -0.058315, -0.191334, 0.007009, 0.082393, -0.165938, 0.018283, -0.042132, -0.091551, 0.15213, -0.057359, 0.034862, 0.176056, 0.18856, 0.014864, 0.058418, -0.075481, -0.020813, -0.024846, 0.025394, 0.095887, -0.040074, -0.002468, 0.117133, 0.082116, 0.147101, 0.08478, -0.145726, 0.049833, -0.030323, -0.162187, 0.274901, -0.094688, 0.004674, -0.044224, 0.178261, 0.027389, -0.027105, 0.122453, -0.104586, -0.291192, -0.071801, -0.114683, -0.179876, -0.006747, 0.09991, 0.211151, 0.161695, 0.03351, -0.024518, -0.087205, -0.018701, 0.086419, -0.114358, 0.115314, 0.067444, -0.2129, 0.121702, -0.096222, -0.089019, 0.003273, 0.073484, 0.075833, -0.093751, 0.006101, 0.11369, -0.06854, -0.040762, -0.085851, 0.09617, 0.129483, 0.00632, -0.018142, -0.074454, -0.184693, 0.068696, 0.163002, -0.095384, 0.125943, 0.156601, -0.087187, 0.028473, 0.177627, 0.291665, 0.162313, -0.080278, -0.084419, -0.067302, -0.113746, -0.104995, -0.267181, 0.050823, 0.166092, 0.091884, -0.062944, 0.079367, -0.238155, -0.009632, 0.141513, 0.200504, -0.085078, 0.310577, 0.027893, 0.116196, -0.024362, -0.21342, 0.074301, -0.002602, 0.077026, -0.068636, -0.145595, -0.083831, 0.047404, -0.010294, 0.041109, -0.138223, -0.00977, 0.111662, 0.045633, -0.04176, 0.151325, -0.051838, -0.040526, 0.072163, 0.205214, 0.070859, -0.004897, -0.097371, 0.018689, 0.05496, 0.076933, -0.061803, 0.104477, -0.172297, -0.037767, 0.113062, -0.123788, -0.074497, -0.022191, 0.075448, -0.074295, -0.055508, 0.027599, -0.082144, -0.086413, -0.048901, 0.186331, -0.075393, 0.150086, 0.150932, 0.108583, -0.117283, -0.03694, 0.046909, 0.130708, -0.16861, -0.070272, -0.061587, 0.073872, -0.045265, 0.326317, -0.031648, -0.007379, -0.086011, -0.00089, -0.124312, -0.352224, 0.030161, -0.189055, 0.098227, 0.090948, 0.093747, 0.125357, 0.03578, -0.029723, 0.083734, 0.066143, 0.139036, 0.021675, -0.08118, -0.018443, -0.095044, -0.097061, -0.123188, 0.075854, -0.06836, 0.070591, 0.120071, -0.093051, -0.02175, -0.078746, 0.009116, -0.008308, 0.091049, 0.260353, -0.09579, 0.017275, 0.046215, -0.160302, 0.083606, 0.164499, 0.017162, 0.211011, -0.17693, 0.116468, 0.007768, 0.032678, 0.115693, 0.092105, 0.044529, -0.0077, -0.178236, -0.009496, -0.095905, -0.222943, 0.083257, 0.015894, 0.024319, -0.119956, 0.193829, -0.042856, -0.0644, -0.060482, -0.111768, -0.19068, -0.133025, -0.024227, 0.120621, 0.228134, -0.03256, 0.037271, 0.04926, -0.115963, 0.096679, 0.096233, 0.025896, -0.163427, 0.073904, 0.11752, 0.038684, -0.052916, 0.042356, 0.070314, -0.034127, 0.092778, -0.25416, -0.050515, 0.177977, 0.088591, -0.025427, 0.128153, -0.006568, 0.087114, 0.013043, 0.045409, 0.17208, 0.028336, 0.054708, -0.066581, 0.095564, -0.05226, 0.090753, -0.077322, 0.090342, 0.169014, 0.06064, 0.112621, 0.119732, -0.22148, 0.004557, 0.01979, 0.190568, -0.260505, 0.024606, -0.24667, 0.028216, -0.098255, 0.079702, 0.093009, 0.047539, -0.102815, 0.19608, -0.051864, 0.085911, -0.189058, -0.089473, -0.013035, 0.112493, 0.071229, 0.206314, -0.038783, -0.079962, 0.037163, 0.027871, 0.215056, 0.07332, 0.106955, -0.121955, -0.05469, 0.045945, -0.247273, 0.124408, -0.032498, -0.276894, -0.081623, 0.100469, 0.025089, -0.236209, -0.170865, -0.058944, -0.031816, -0.222149, -0.041651, -0.146468, 0.188548, 0.044215, 0.000964, -0.029336, -0.026213, -0.050554, 0.046719, 0.096315, 0.063058, 0.052502, 0.040304, 0.099307, 0.011684, 0.266117, 0.026953, -0.182261, -0.035456, -0.11374, -0.093805, 0.003006, -0.132258, -0.324745, 0.088296, 0.057372, 0.034849, -0.114339, -0.104806, 0.117678, 0.100273, -0.188442, 0.162841, -0.096451, -0.060832, 0.195581, -0.01182, -0.037216, -0.130876, 0.11874, 0.09598, 0.125918, 0.118652, 0.140723, 0.103852, -0.107685, -0.122655, 0.042386, 0.169255, 0.092126, 0.072917, -0.284912, 0.130211, 0.19912, 0.025318, 0.040524, 0.121123, -0.054101, 0.033655, -0.019488, -0.094365, -0.021307, 0.06044, 0.084634, -0.037333, 0.029723, -0.082809, 0.089961, -0.225105, -0.199822, 0.072046, -0.008086, -0.01345, -0.073545, 0.041403, -0.266859, -0.083179, -0.050705, 0.150279, -0.092789, 0.030101, -0.057172, 0.128548, 0.210637, 0.081865, 0.117185, -0.037983, -0.07056, -0.033386, -0.152774, -0.151538, -0.143851, 0.07912, -0.12635, -0.119833, 0.046684, -0.050695, -0.208347, 0.030004, -0.096582, 0.101263, -0.106078, -0.048345, 0.084036, -0.017461, -0.048611, -0.043487, 0.002734, -0.220851, 0.005812, 0.084775, 0.251604, 0.107989, 0.032597, -0.11621, 0.000533, 0.022179, 0.009748, 0.033516, -0.02125, 0.204257, -0.055371, -0.069212, 0.083061, -0.056232, 0.083976, -0.061517, 0.159942, 0.063749, 0.066972, -0.028284, 0.024896, 0.03095, -0.277196, -0.12274, 0.058252, -0.027983, -0.073198, 0.180718, -0.292111, -0.030252, -0.027009, 0.06893, -0.002162, 0.076927, -0.131654, -0.11716, -0.092528, -0.075935, 0.047642, -0.047064, 0.032247, -0.037537, -0.09428, -0.047303, 0.182907, 0.034831, 0.149658, -0.174938, 0.047823, 0.222578, -0.078265, 0.05952, 0.222945, 0.289718, 0.05933, -0.025999, -0.247224, -0.021804, 0.182178, 0.048768, 0.001531, 0.015549, 0.154051, -0.160731, -0.109536, -0.001825, -0.004137, 0.023648, 0.075709, -0.086874, -0.098854, -0.059462, -0.139287, 0.15785, 0.003564, -0.006883, -0.012715, 0.090903, 0.088885, 0.221278, 0.219511, 0.077502, -0.119586, 0.161095, 0.047285, -0.064369, -0.090236, -0.024974, -0.132614, 0.150605, 0.149278, 0.118399, -0.155528, -0.119051, 0.084418, 0.055851, -0.064385, 0.142148, 0.120237, 0.022645, -0.016266, -0.003371, 0.068955, 0.026645, -0.183368, -0.125601, 0.032657, -0.15509, -0.144572, 0.08112, 0.192059, -0.115592, 0.057465, 0.05424, -0.197134, 0.081687, -0.024987, 0.00275, -0.071483, -0.14926, -0.00377, 0.116687, -0.110884, 0.083375, 0.281023, -0.197687, -0.003016, 0.054317, -0.154277, -0.112437, -0.039663, -0.181891, 0.015442, -0.017076, -0.033586, 0.007139, -0.052624, 0.049988, -0.022646, -0.071817, 0.055532, 0.06396, 0.188924, 0.409865, -0.097549, 0.111113, 0.218806, 0.019413, 0.03805, -0.178903, 0.02218, 0.047634, 0.156085, -0.03132, -0.153243, 0.189455, -0.094334, 0.0558, 0.029727, 0.042735, 0.065222, 0.077565, 0.070262, 0.147513, -0.16962, 0.275191, 0.282772, -0.013855, 0.005374, -0.026026, 0.071633, 0.095459, 0.042797, -0.116586, 0.087452, 0.058787, 0.029281, 0.039498, -0.290779, -0.002782, -0.226022, 0.044143, -0.019754, 0.064317, 0.012778, 0.141181, 0.008955, 0.113403, -0.099289, 0.084948, -0.006874, -0.075715, 0.070915, 0.239284, -0.022246, 0.177504, 0.049817, 0.139719, 0.082869, -0.244084, 0.129922, 0.040968, 0.068759, -0.050092, -0.031137, 0.157628, 0.197903, -0.051627, -0.052535, 0.084063, 0.017512, -0.047727, -0.16428, 0.042711, -0.152318, -0.065883, -0.040686, -0.03484, 0.077433, -0.09198, -0.10414, -0.001112, -0.013293, -0.079821, 0.098465, 0.042897, -0.018208, 0.041395, 0.170182, -0.062228, -0.31718, -0.004017, -0.007192, 0.029412, 0.129265, -0.035341, -0.146823, 0.147963, -0.069509, 0.022352, 0.02005, 0.084046, -0.115607, 0.114588, 0.002443, -0.284995, 0.054876, 0.023284, 0.016733, 0.112841, 0.057716, 0.039161, -0.10891, -0.02968, -0.079678, 0.034856, -0.027, 0.092884, 0.107521, 0.241237, 0.061516, 0.122614, 0.057585, -0.028533, 0.023332, -0.029097, 0.029777, -0.108702, -0.012346, -0.051989, 0.046539, 0.004757, -0.074786, -0.123345, 0.149443, -0.100601, 0.151116, 0.125937, 0.00846, 0.018771, -0.041144, -0.047536, 0.097034, 0.191099, -0.024963, 0.035554, 0.078777, 0.029003, -0.012221, 0.227734, -0.112204, -0.045451, 0.07501, -0.041915, -0.122149, 0.002292, 0.002041, 0.146072, -0.072456, -0.018505, 0.032405, 0.100864, 0.13199, 0.043597, 0.009169, 0.064669, -0.117117, 0.04375, 0.112462, 0.000882, -0.106273, -0.005078, -0.090809, 0.048153, 0.034336, 0.121117, 0.127466, 0.013364, 0.010345, -0.078175, -0.089492, -0.036354, -0.198139, -0.09411, -0.141016, 0.128589, -0.083014, 0.061423, -0.138664, -0.039512, 0.099855, 0.000825, 0.000549, -0.048349, -0.015016, 0.009079, -0.079733, 0.023703, 0.14245, -0.036551, 0.167054, -0.050258, 0.05341, 0.027395, 0.00545, 0.010183, -0.1434, 0.076783, 0.089746, 0.120107, -0.017788, 0.143517, -0.046084, -0.138147, -0.000169, 0.045446, 0.050446, 0.034023, -0.090361, -0.010761, -0.027884, 0.05531, -0.101757, 0.038104, -0.006867, -0.065511, 0.108951, 0.009804, 0.020321, 0.099311, 0.179323, 0.104539, -0.011147, 0.109245, -0.036062, -0.067809, 0.176052, -0.035056, 0.20084, 0.054752, 0.045743, 0.220817, 0.089144, 0.057046, 0.016935, 0.063018, 0.067937, 0.073891, -0.019191, -0.142615, -0.075592, -0.086728, 0.022781, -0.016751, -0.172314, 0.072595, -0.048183, -0.06698, -0.234882, 0.055322, -0.142098, 0.000727, -0.063566, -0.042309, -0.025856, -0.025255, 0.011837, 0.19378, -0.177466, -0.121276, -0.189009, 0.02808, -0.109414, -0.112344, 0.039513, 0.000742, 0.11711, -0.106832, 0.03033, 0.056613, -0.051688, -0.075045, 0.116469, -0.00724, 0.011388, -0.06091, 0.04392, -0.182267, -0.031362, 0.12957, -0.014809, -0.132276, -0.021167, -0.156473, -0.161622, 0.216041, 0.185874, -0.12893, -0.016196, 0.015764, 0.045043, 0.017759, -0.093851, -0.205978, -0.06477, -0.108204, -0.070097, -0.296498, 0.05122, -0.144027, 0.004916, -0.052345, -0.022236, -0.004491, 0.170927, 0.092814, -0.059662, 0.087766, -0.014022, 0.107058, -0.034169, 0.052387, 0.028908, -0.010975, 0.012656, -0.068488, -0.127981, 0.00152, -0.079652, -0.075947, 0.012652, 0.013332, 0.107095, -0.048463, 0.14839, 0.088944, 0.027422, 0.069951, 0.069828, 0.175667, -0.148333, -0.04986, -0.205876, -0.061638, 0.012255, -0.07419, 0.009099, -0.178558, 0.2733, -0.054699, -0.06386, -0.014958, -0.031093, 0.038921, -0.111959, -0.081281, -0.157048, 0.096821, 0.027981, -0.03949, -0.0094, -0.037661, -0.072339, 0.110973, 0.148801, -0.076526, 0.176722, -0.007417, 0.00682, 0.094157, 0.026067, 0.067359, -0.020498, 0.123159, 0.188711, 0.102845, 0.075729, -0.010696, -0.105717, 0.042749, 0.035948, 0.022444, -0.02816, -0.009953, -0.060384, 0.055801, 0.034519, 0.06165, 0.215416, 0.041004, 0.055857, 0.02367, -0.052557, 0.052867, 0.05549, -0.014728, -0.027143, 0.127028, -0.098131, -0.073493, -0.248433, 0.008199, 0.093534, 0.026555, -0.095394, 0.161514, -0.081816, -0.024168, 0.071615, -0.145021, 0.088293, -0.023483, -0.107906, -0.01252, -0.124546, 0.190418, -0.152468, -0.052797, 0.005295, 0.030567, -0.000972, 0.00824, -0.118364, -0.099738, -0.082801, -0.012042, -0.016964, 0.086715, -0.011941, 0.024091, -0.065068, 0.048578, -0.027303, -0.062888, 0.021331, -0.100672, -0.033929, -0.166819, 0.091557, 0.134483, 0.070798, -0.011336, -0.239217, 0.00202, 0.039848, -0.000969, -0.121319, -0.052439, -0.079146, 0.002297, -0.075111, -0.035769, -0.01174, -0.077798, 0.096015, -0.016287, 0.145292, 0.052705, 0.037918, 0.08768, 0.080841, 0.071851, -0.11299, 0.088799, 0.132117, -0.075671, -0.088599, 0.149726, 0.129844, 0.097922, -0.002011, 0.03579, 0.01307, -0.023553, 0.010535, -0.032244, 0.077832, 0.03481, -0.04297, -0.026943, 0.056965, 0.073302, 0.014524, 0.135105, -0.011692, -0.058659, 0.009243, -0.024194, -0.02185, 0.105409, 0.041713, -0.186652, 0.121607, -0.015759, 0.068009, 0.045143, 0.09972, 0.057559, -0.000377, 0.050383, -0.094211, -0.056641, 0.012036, 0.139136, 0.012003, -0.020412, -0.091593, -0.023484, 0.10865, -0.153595, 0.106543, 0.081576, -0.042418, -0.079632, -0.001097, 0.111811, 0.082288, 0.19449, -0.082277, 0.017813, 0.144103, -0.182995, -0.053831, -0.135595, 0.163723, -0.11956, 0.020887, -0.01085, -0.037433, -0.0556, 0.068303, 0.106906, -0.030485, 0.102268, -0.0029, -0.092718, 0.041272, 0.049081, 0.122952, 0.036711, 0.029269, 0.228178, 0.037052, 0.069529, 0.045817, 0.026869, -0.07926, 0.075984, 0.005197, 0.070161, -0.100464, 0.155355, 0.089619, 0.031425, -0.079604, -0.038212, 0.101243, 0.041136, 0.10169, -0.110488, 0.096531, 0.041355, 0.013016, -0.056617, 0.056868, -0.048056, 0.104938, 0.027009, -0.076033, -0.093588, -0.137485, -0.006928, -0.053891, -0.066862, 0.057556, -0.035196, -0.081471, 0.044674, 0.063637, 0.152255, 0.065566, 0.116629, 0.16339, -0.076931, -0.007206, 0.055886, 0.09372, -0.007579, -0.000265, -0.048807, 0.085401, 0.116437, 0.0469, 0.049267, -0.046058, 0.100002, 0.041426, 0.011317, -0.055645, -0.07513, 0.051941, 0.073164, -0.016582, -0.02367, 0.021345, -0.019539, 0.040779, -0.126422, -0.059173, 0.090999, -0.050988, -0.051369, -0.065633, 0.068418, 0.054638, -0.07246, 0.037426, -0.062899, -0.115818, -0.099211, -0.004868, 0.018074, -0.049359, -0.082038, 0.035085, 0.065344, 0.040737, -0.097165, 0.050293, -0.117694, -0.071919, 0.023155, -0.074165, -0.010615, -0.088007, 0.112588, 0.066174, -0.004139, 0.068186, -0.084948, 0.080878, 0.08075, 0.107855, 0.019149, 0.065858, 0.080793, -0.021908, -0.119721, 0.074187, -0.033447, 0.045109, 0.028638, -0.025233, -0.050748, -0.072417, 0.047795, -0.013359, -0.125791, 0.098682, -0.039002, -0.067039, -0.055772, -0.051857, -0.050586, 0.018058, 0.041039, 0.006333, 0.08983, -0.056004, -0.0602, -0.004189, 0.024828, 0.081109, 0.017637, -0.064159, -0.061989, -0.031979, -0.049828, -0.023583, 0.032408, -0.028229, 0.107179, -0.035433, 0.032906, -0.086556, 0.109156, -0.001466, -0.051954, -0.000627, -0.047482, 0.095451, -0.096429, -0.054825, -0.113574, 0.061064, 0.002681, 0.036192, 0.105033, -0.0337, 0.104187, 0.005115, -0.072705, -0.043059, -0.038149, 0.010349, 0.077671, -0.051043, -0.064064, 0.106731, 0.054946, 0.187124, -0.032168, 0.186152, 0.101167, -0.038834, 0.027395, -0.080343, 0.039807, -0.02335, 0.063385, -0.048779, -0.079675, -0.020216, -0.214859, -0.032994, -0.044387, 0.108143, 0.140116, -0.016693, -0.052265, 0.013694, -0.134708, -0.025215, -0.008586, -0.120419, -0.058161, 0.082759, -0.053108, 0.067221, -0.076266, -0.000661, 0.062708, -0.11653, 0.005332, 0.08083, -0.254599, -0.228618, -0.090894, -0.053925, -0.059913, 0.127782, -0.110305, 0.029017, -0.160135, 0.084414, -0.012548, -0.118631, 0.064476, 0.120247, 0.013031, 0.11482, 0.034065, 0.101375, 0.112108, -0.036481, -0.01685, -0.12052, -0.111722, 0.02704, -0.094338, -0.11066, 0.219915, 0.090189, 0.059152, 0.046606, -0.010383, -0.006274, -0.099554, -0.02265, 0.101207, -0.087559, -0.094462, -0.106121, 0.114383, 0.071406, -0.067764, -0.077775, 0.17757, 0.065046, -0.014279, -0.004819, 0.064018, 0.108786, -0.147915, -0.042274, -0.073778, 0.056771, 0.071201, -0.032354, 0.124957, 0.0788, -0.229139, 0.099356, -0.069295, -0.080464, 0.037653, -0.156565, -0.097797, -0.026907, 0.094866, 0.150627, -0.188737, -0.022902, -0.012644, -0.052769, -0.061799, -0.052396, 0.080621, 0.001099, -0.128295, -0.125088, -0.07042, -0.023872, 0.244865, 0.045025, 0.276598, -0.017135, -0.060175, 0.039878, 0.064485, -0.135871, -0.047098, -0.072957, -0.045164, 0.091025, -0.121229, -0.223621, -0.092918, 0.11008, -0.267493, -0.04989, 0.066531, -0.133949, 0.031217, -0.088473, -0.112012, 0.085849, -0.01806, 0.061985, -0.236935, 0.158984, 0.192075, 0.059734, -0.019162, -0.22506, -0.040522, -0.102931, 0.054078, -0.081868, -0.026899, -0.152491, 0.015446, -0.043294, 0.184183, 0.172044, -0.123867, 0.065198, -0.067647, -0.065202, -0.117485, -0.140199, -0.310788, 0.022663, 0.317795, 0.04183, 0.165013, -0.02735, -0.104113, 0.038894, -0.086207, -0.025664, 0.067952, -0.157817, -0.027901, 0.006326, 0.019623, 0.082683, 0.125387, 0.070895, 0.215281, 0.286442, -0.016084, 0.18462, 0.044605, -0.143354, -0.065064, -0.076496, -0.087076, -0.04097, 0.031773, 0.068282, -0.099548, 0.310105, 0.186452, -0.03261, -0.113353, -0.014006, -0.137097, 0.270483, -0.017596, 0.006219, -0.023131, 0.219132, 0.066986, 0.00855, 0.040192, -0.171348, -0.203417, -0.091031, 0.018598, -0.043187, -0.22745, 0.105032, 0.137049, -0.125822, -0.0622, -0.185407, -0.277726, -0.180693, 0.109371, 0.071251, -0.032926, 0.190084, -0.225402, 0.165739, -0.014772, 0.079267, 0.058559, 0.11163, 0.128971, 0.007743, 0.00384, -0.118244, -0.092377, -0.132133, 0.121971, -0.042308, 0.16474, 0.134494, -0.014188, -0.131985, -0.048304, 0.042198, 0.079454, -0.130031, 0.010629, 0.080955, 0.023086, 0.086893, 0.164223, 0.257352, -0.01323, -0.115803, -0.116015, -0.014631, -0.069635, -0.044835, -0.181171, 0.036947, 0.135028, 0.020289, -0.088872, 0.049413, -0.079614, 0.10803, 0.056808, -0.074507, -0.061695, 0.322148, 0.067071, 0.146531, -0.092579, -0.025827, 0.022363, -0.014884, 0.121686, -0.108796, -0.057477, 0.011472, 0.071072, -0.070882, 0.063666, -0.143635, 0.178795, 0.146176, 0.036902, 0.013914, 0.177688, -0.029536, -0.096282, -0.259699, 0.18559, 0.073099, -0.049461, -0.09188, 0.184718, -0.086677, 0.206032, -0.145127, -0.075717, -0.066007, 0.190079, 0.113901, -0.025877, -0.023054, 0.007287, 0.184338, -0.082056, 0.045094, 0.028931, 0.023377, -0.27747, -0.197541, -0.093145, 0.038087, 0.072062, 0.137402, 0.021209, -0.110192, 0.00943, 0.110441, 0.019439, -0.122451, 0.062526, -0.059261, -0.061013, 0.026833, 0.31749, 0.030928, 0.069739, -0.075866, -0.036363, -0.203656, -0.152655, 0.039253, -0.071342, 0.07578, 0.023979, 0.056359, 0.12614, -0.029685, -0.005618, 0.009749, -0.085431, 0.168753, 0.0398, -0.117962, 0.058487, -0.071161, -0.090166, -0.118475, 0.096852, -0.049799, 0.00778, 0.007161, -0.006216, 0.100507, 0.021846, -0.02415, 0.003456, 0.165041, 0.291588, -0.173508, 0.12671, -0.090643, -0.050677, 0.040179, -0.087356, -0.175429, 0.106384, 0.031018, 0.157908, 0.13057, 0.029279, 0.161098, 0.210763, 0.017598, -0.114464, -0.058612, -0.057454, -0.104715, -0.11609, 0.091937, 0.076955, -0.09877, -0.054386, 0.059059, -0.115499, -0.197404, 0.040429, 0.091736, -0.142358, -0.049424, -0.086598, 0.124875, 0.183339, 0.061894, 0.215225, -0.081588, -0.134996, 0.11358, -0.016561, -0.009762, -0.049229, 0.097416, 0.10035, 0.225085, 0.04917, 0.065514, 0.040709, 0.021661, 0.194259, -0.301746, -0.043031, 0.248571, 0.20888, 0.000497, -0.061076, -0.036174, -0.011326, 0.119791, 0.074132, -0.010849, -0.117705, -0.045322, -0.017775, 0.013816, -0.183953, 0.027549, -0.074317, 0.102564, 0.18327, -0.064818, 0.194978, 0.032678, -0.117375, 0.043626, -0.111379, 0.14375, -0.15521, 0.015554, -0.096176, 0.022395, -0.045653, -0.021362, -0.08022, 0.106013, -0.0065, 0.081722, 0.096947, -0.092444, -0.304234, -0.25712, -0.078833, -0.01123, 0.073938, 0.090893, 0.007237, 0.019416, 0.018664, -0.176104, 0.172263, 0.088263, 0.093331, 0.074548, 0.15779, 0.111101, -0.343464, 0.13631, 0.127727, -0.168201, -0.051754, 0.14092, -0.041661, -0.125809, -0.056511, 0.045129, 0.111358, -0.227168, -0.064853, -0.288689, 0.072065, -0.031749, -0.023241, -0.030923, -0.15971, -0.300912, 0.149054, 0.105907, -0.065104, 0.007293, -0.046557, 0.123036, 0.115766, 0.241918, 0.032677, -0.005292, -0.071261, -0.07289, 0.033588, -0.030009, -0.07724, -0.230189, 0.046577, 0.013688, 0.103548, 0.12499, -0.209875, -0.024622, 0.130636, -0.042078, 0.1013, -0.014945, 0.004121, 0.108419, 0.045801, -0.126692, -0.07607, 0.024828, 0.033876, 0.20382, 0.135994, 0.169639, 0.152668, 0.065597, -0.165432, 0.042759, 0.091176, 0.127271, 0.119968, -0.10808, 0.220432, 0.213358, 0.170702, 0.036861, 0.047884, -0.078731, 0.068508, -0.065865, 0.018596, 0.108501, 0.041107, 0.1824, 0.09825, -0.076191, 0.119262, -0.033494, -0.203213, -0.104253, -0.143316, -0.046232, -0.054711, -0.159094, 0.038909, -0.161323, -0.035269, -0.274529, 0.114789, -0.067335, 0.126644, -0.11087, 0.123418, 0.132101, 0.138181, 0.011323, 0.083733, -0.051915, 0.095239, -0.233797, -0.133359, -0.033792, 0.034834, -0.277412, -0.143481, -0.077712, 0.013519, -0.205186, 0.207927, -0.095958, 0.008876, -0.010863, -0.119435, 0.01274, 0.036577, 0.098592, 0.02705, -0.095236, -0.148754, -0.043746, 0.051159, 0.253991, 0.047412, 0.079964, -0.071047, -0.085906, 0.040775, -0.070461, 0.082504, 0.037132, 0.314828, 0.059796, 0.06704, -0.02632, 0.030237, 0.110759, -0.127602, 0.04747, 0.001626, 0.12486, 0.013184, 0.099083, -0.092824, -0.235217, -0.029501, 0.013902, -0.208803, 0.006649, 0.035142, -0.138624, -0.018574, 0.035067, 0.03597, -0.111083, -0.024192, -0.184644, -0.00964, -0.0194, 0.026996, 0.098306, 0.020232, -0.228407, -0.002307, 0.021911, -0.10961, 0.22905, -0.012262, 0.185214, -0.15163, -0.093637, 0.244741, -0.120725, 0.117623, 0.034303, 0.191756, -0.1544, -0.07978, -0.232369, 0.016683, 0.200155, -0.107694, 0.029063, -0.031911, 0.023219, -0.243993, -0.029772, -0.074465, 0.066336, 0.082305, 0.067592, -0.109071, -0.012662, -0.002594, -0.079639, 0.12821, -0.034457, 0.080997, -0.123736, 0.127712, 0.003002, 0.165853, 0.239448, -0.045568, -0.04079, -0.008281, -0.081354, -0.060875, -0.17293, -0.0074, -0.062983, 0.212003, 0.222721, -0.019627, -0.163369, -0.117906, 0.016617, 0.080178, -0.043959, 0.208302, 0.104393, 0.157279, 0.01008, -0.125406, 0.054936, -0.032751, -0.109405, 0.076323, 0.121288, -0.121445, -0.06301, 0.116386, 0.111163, 0.015868, 0.195048, 0.161173, -0.225195, 0.032273, 0.026905, -0.059796, 0.020398, -0.128437, 0.0326, 0.204041, -0.087963, 0.103099, 0.148463, 0.04521, -0.123697, 0.006814, 0.034212, -0.1383, -0.036675, -0.250817, -0.062038, 0.036092, -0.02801, 0.054774, 0.015602, 0.033764, -0.041535, -0.019139, -0.063024, 0.016245, 0.06923, 0.453884, -0.012274, 0.183955, -0.012798, -0.026293, -0.050378, -0.168197, -0.078637, 0.195138, 0.037013, 0.071506, 0.102398, 0.271554, -0.301092, -0.022279, -0.022296, 0.094254, 0.056187, -0.008732, 0.222718, 0.178809, -0.220442, 0.337597, 0.233227, 0.054264, -0.079427, 0.014033, 0.056799, -0.045283, -0.016547, 0.095831, 0.039061, -0.028761, -0.095281, -0.009701, -0.26801, -0.063273, -0.270609, -0.088115, -0.060105, 0.170615, 0.058029, 0.081756, 0.115528, -0.008223, -0.403308, 0.029897, 0.206593, 0.127455, 0.116544, 0.119665, 0.137466, -0.060925, -0.168246, 0.085516, -0.050231, 0.006211, -0.031717, 0.023545, 0.091593, -0.061701, 0.125619, 0.255318, 0.106198, 0.034655, -0.066336, -0.253423, 0.09744, -0.189433, -0.069479, -0.076451, -0.042407, 0.113906, -0.131673, -0.139093, -0.040298, 0.014169, 0.106704, 0.148427, 0.021299, 0.110964, 0.018449, 0.108165, 0.086277, 0.145095, 0.02273, -0.10337, -0.082716, -0.015844, 0.093204, -0.036991, -0.008151, 0.106573, -0.073316, 0.120552, 0.035492, 0.044733, 0.043129, -0.178702, -0.030516, 0.061435, -0.053456, -0.501697, 0.019844, 0.038088, -0.04167, 0.241298, -0.01841, 0.032078, -0.010619, -0.082087, 0.021709, 0.042867, 0.137382, -0.01939, -0.063446, -0.024339, -0.037886, 0.161396, 0.105482, 0.084243, 0.047675, -0.137067, -0.060004, 0.012131, 0.090233, -0.108809, 0.070886, -0.134548, 0.003814, -0.138838, 0.129548, -0.092318, 0.105872, 0.0433, 0.111164, -0.092743, 0.066846, 0.1047, 0.067546, 0.017459, -0.109482, 0.0735, -0.055112, -0.017156, 0.105199, 0.16076, -0.135422, 0.031527, 0.171619, -0.060386, 0.059732, -0.059158, 0.041465, 0.144017, 0.015382, 0.048167, 0.017311, 0.040965, 0.000567, -0.058545, -0.014106, -0.041304, -0.017262, -0.01351, -0.054167, 0.062742, -0.103481, 0.100997, -0.006639, -0.125037, 0.127938, 0.096041, 0.214932, -0.094419, -0.036946, -0.163838, -0.094348, -0.011104, -0.111106, 0.109453, -0.021367, 0.058397, -0.105271, 0.021107, -0.025413, -0.029692, 0.177679, -0.00708, -0.136695, 0.024968, 0.030729, 0.094996, -0.064362, -0.067413, 0.109423, -0.035002, 0.013477, -0.018333, 0.001269, 0.257283, 0.044368, 0.01199, -0.118335, -0.022685, 0.000741, 0.034692, -0.161231, 0.157235, 0.065933, 0.012068, -0.088264, -0.154737, -0.134765, 0.033215, -0.027786, -0.000382, 0.026696, 0.081728, 0.010337, 0.040977, -0.054435, -0.126619, -0.00814, -0.042023, -0.01, 0.06759, 0.19091, -0.042758, 0.021636, 0.211766, -0.145176, 0.069888, 0.109439, -0.02905, 0.189402, 0.085926, 0.15562, 0.244884, 0.015432, 0.077529, -0.068537, -0.039467, -0.142306, 0.001426, -0.102904, -0.137607, -0.145558, 0.007786, 0.109643, 0.065476, -0.143834, 0.063106, 0.024233, -0.134599, -0.268045, -0.121383, -0.180526, -0.118798, 0.162177, -0.041744, -0.079053, -0.144841, -0.002483, 0.246351, -0.078233, -0.090123, -0.084874, 0.087533, -0.02013, -0.085485, -0.05743, 0.020369, -0.020046, -0.055308, -0.093476, 0.096212, -0.010049, -0.1243, -0.003605, -0.105264, 0.0829, -0.084549, -0.006829, -0.200336, -0.043907, 0.02693, -0.008623, -0.029186, -0.067476, -0.073179, -0.05062, 0.189668, 0.051759, -0.041977, 0.075242, 0.024331, 0.094844, 0.019535, -0.107269, -0.068024, 0.080902, 0.054431, -0.066539, -0.149667, -0.126411, -0.080558, -0.057226, -0.060792, 0.116581, -0.001761, 0.304667, 0.109002, 0.037237, -0.033423, -0.193865, 0.08799, -0.093594, 0.178285, -0.048958, 0.12603, 0.147677, 0.004214, -0.22772, -0.00956, -0.069654, 0.078788, -0.045046, 0.010087, 0.177616, -0.069507, 0.075238, 0.161063, -0.114454, 0.021742, -0.070913, 0.118729, -0.118958, -0.178255, -0.169554, 0.062458, -0.073508, -0.01842, 0.126009, -0.247268, 0.165905, -0.112643, -0.060915, -0.041269, 0.016013, -0.016104, -0.119155, -0.144627, -0.156503, 0.052679, 0.094542, -0.176678, 0.009561, -0.090179, -0.175545, 0.01717, 0.074364, -0.070307, 0.038107, 0.003358, -0.016548, 0.123978, 0.041202, -0.016167, 0.123866, 0.090664, 0.056022, 0.121277, -0.119342, 0.045789, -0.208827, -0.040871, 0.097917, -0.017912, 0.050611, 0.006759, -0.059158, 0.168629, 0.081877, 0.14178, 0.038623, 0.076521, 0.053762, 0.007343, 0.131529, -0.007509, -0.183409, 0.034529, -0.015244, 0.070156, -0.047857, -0.039415, -0.229469, -0.034659, -0.011842, 0.020932, -0.123959, 0.216812, -0.105806, 0.051269, 0.07085, -0.074433, 0.021421, 0.054925, -0.158742, -0.073431, 0.047109, 0.106383, -0.065301, -0.00082, -0.024483, 0.03823, -0.046757, -0.150428, -0.003201, -0.183483, 0.001722, -0.230287, -0.070366, 0.084868, 0.050601, 0.042748, -0.070543, 0.072025, 0.006966, -0.022638, 0.005187, -0.10923, -0.118488, -0.099485, 0.136986, 0.186743, 0.086814, -0.075193, -0.044106, 0.062056, 0.071415, -0.00225, -0.034205, -0.060479, 0.070047, -0.011535, -0.104638, 0.034477, 0.095524, -0.243125, 0.141479, 0.001848, 0.098585, 0.01074, 0.161092, 0.166955, 0.142287, 0.151428, 0.001442, 0.03674, 0.017318, -0.084435, 0.061655, 0.235846, 0.090141, 0.083725, 0.069357, 0.00404, -0.133412, 0.028094, 0.161599, -0.02087, 0.133634, 0.000679, 0.057225, -0.001828, 0.047962, 0.040408, 0.074972, 0.086402, 0.014563, -0.048348, -0.036675, 0.156837, 0.056618, 0.014509, 0.082813, -0.289671, 0.130667, 0.011626, 0.011345, 0.069725, 0.044102, 0.066622, -0.160532, -0.126765, -0.038389, -0.173066, 0.131111, 0.155775, 0.155114, -0.042561, -0.101032, 0.094305, 0.006486, -0.113971, 0.085251, 0.033949, -0.093468, -0.024745, 0.067457, 0.061843, 0.119242, 0.115548, 0.035141, 0.110195, 0.018929, -0.183253, -0.203036, -0.07837, 0.072203, -0.158863, 0.079147, 0.049673, -0.123848, -0.067043, 0.119563, 0.154298, 0.017727, 0.05899, 0.049267, -0.078807, 0.012614, 0.020956, 0.169268, 0.108078, 0.041161, 0.027558, -0.022643, 0.006584, 0.110914, -0.008573, 0.059006, 0.057019, -0.124132, -0.001593, 0.043894, 0.156643, -0.015221, 0.068531, -0.053036, -0.010389, 0.049197, -0.021874, 0.00157, 0.05345, -0.108542, 0.088543, -0.079576, -0.013975, -0.046549, 0.10456, 0.036306, 0.078622, 0.009129, -0.051192, -0.060781, -0.019897, 0.017488, -0.107318, -0.114642, -0.028412, -0.041522, 0.055213, -0.092527, 0.244494, -0.068896, 0.043358, 0.057161, 0.02383, 0.051038, -0.060574, -0.012231, 0.024184, -0.105986, 0.066786, 0.054731, 0.103345, 0.075392, -0.006014, -0.040677, -0.061909, 0.020471, 0.02328, -0.034561, 0.064619, 0.014, 0.157685, 0.045126, -0.04009, -0.017095, 0.078187, 0.14423, 0.024541, -0.012538, -0.027443, 0.080032, 0.008206, 0.099107, -0.072557, 0.068736, -0.04536, 0.040671, 0.059434, -0.07342, 0.024738, -0.0434, -0.035239, -0.046612, -0.012289, 0.066653, -0.00249, -0.022078, 0.03672, -0.027635, -0.094157, -0.028062, -0.004813, -0.028013, 0.05784, -0.039533, 0.122666, -0.050125, -0.024242, -0.073223, -0.005889, -0.020751, -0.070926, 0.069998, -0.038374, 0.078846, 0.090746, -0.123755, 0.045106, -0.017181, 0.044801, -0.119197, -0.007863, -0.063013, -0.038109, -0.025108, -0.069256, 0.138928, 0.089368, -0.029836, 0.068593, 0.009951, -0.107342, -0.049266, -0.097979, -0.071954, 0.116528, 0.085103, 0.043131, -0.124142, 0.161582, -0.082295, -0.039868, 0.125488, -0.010204, -0.083896, 0.004693, -0.029553, -0.099045, -0.041559, -0.032829, 0.029531, 0.069102, -0.074313, -0.072484, -0.01818, 0.050311, 0.03091, -0.032157, 0.018448, -0.042261, 0.012383, -0.061117, 0.064871, 0.033278, 0.051225, 0.167083, -0.033514, 0.115818, 0.051405, 0.141917, -0.016965, 0.0193, -0.070507, 0.019746, -0.137132, -0.218825, -0.087986, -0.189197, 0.060338, -0.120842, -0.034146, 0.032549, 0.090748, -0.037036, 0.019612, 0.037886, -0.097685, -0.022632, 0.020756, 0.084007, -0.255234, 0.02818, -0.120856, -0.043792, -0.030176, -0.026742, 0.142797, 0.091737, 0.112682, 0.07649, 0.092065, 0.011048, -0.065503, 0.033883, -0.025757, -0.07142, 0.056138, -0.136699, -0.026039, -0.075464, 0.077766, -0.062397, -0.135523, -0.12308, 0.155205, -0.064755, -0.199995, -0.11802, -0.079377, 0.03274, 0.068615, -0.116127, 0.069782, 0.026538, -0.133836, 0.057114, -0.038504, 0.033646, 0.271884, -0.133237, 0.209253, -0.020778, 0.037235, 0.00736, 0.097691, -0.038443, -0.07045, -0.037376, 0.045533, -0.025805, -0.034361, 0.081715, -0.0036, 0.016293, -0.049681, 0.132516, 0.169027, 0.077731, -0.069022, 0.006085, -0.024338, -0.067474, -0.077545, 0.006306, 0.054387, -0.029344, 0.028426, 0.070508, 0.020945, 0.081369, -0.080145, -0.048834, 0.121783, -0.020931, -0.018264, -0.003064, 0.153748, -0.021326, -0.124227, -0.020025, -0.093797, -0.077032, 0.053393, -0.057061, -0.076496, 0.009677, -0.05181, 0.074672, -0.122163, 0.181634, 0.071724, -0.094418, 0.014507, -0.028497, 0.175062, 0.062788, -0.144812, 0.112917, 0.103796, -0.070357, -0.150077, 0.058811, 0.00955, 0.133702, 0.068083, 0.141605, 0.015167, -0.085333, 0.001067, -0.034638, 0.036731, 0.07081, -0.052957, -0.126827, 0.096974, -0.146536, -0.327576, -0.124951, -0.030525, -0.127028, 0.14882, 0.031775, -0.121537, 0.125276, -0.050734, -0.020658, 0.160398, 0.053589, 0.171076, -0.154618, 0.192885, 0.233673, -0.054898, -0.032751, -0.092649, -0.254262, 0.046924, 0.11943, -0.031287, 0.051091, -0.104118, -0.142922, -0.024644, 0.061512, 0.264182, -0.060603, 0.104592, -0.006652, -0.011573, -0.05442, 0.010223, -0.289602, 0.241197, 0.081793, 0.256328, 0.208306, 0.127228, -0.065787, 0.053916, -0.09375, -0.08389, -0.139059, -0.118207, -0.141303, -0.237094, 0.309373, -0.239043, 0.150386, -0.045911, 0.04623, 0.140775, -0.10341, 0.222075, -0.120294, -0.025704, 0.108048, 0.009195, -0.191012, 0.003077, 0.02567, 0.016677, -0.069507, 0.428931, 0.342853, 0.003704, -0.040611, 0.062158, -0.107654, -0.000359, 0.080522, -0.092975, 0.004692, 0.30643, -0.002047, -0.047098, -0.148217, -0.022448, 0.114201, -0.123522, 0.046966, -0.135191, -0.064742, -0.039089, 0.038376, -0.05552, -0.092293, -0.240958, -0.40248, -0.118949, 0.019893, -0.039113, -0.100632, -0.048525, -0.053887, 0.024625, 0.206835, 0.013299, 0.159266, 0.152335, 0.044981, 0.028264, 0.061766, -0.134844, -0.062905, 0.028369, -0.06492, -0.02067, 0.133194, 0.066607, 0.087036, -0.062166, -0.129154, -0.109417, 0.037474, -0.128893, 0.089089, -0.043458, -0.019877, 0.217661, 0.181546, -0.032188, -0.150735, 0.037266, -0.216958, -0.018499, -0.154533, 0.223757, -0.14782, 0.112665, 0.246119, -0.057969, -0.10852, 0.071144, 0.092897, 0.193649, -0.115126, -0.258344, 0.078382, 0.227524, 0.091019, 0.171396, -0.10925, -0.182915, -0.080763, -0.074371, -0.084631, -0.051084, -0.028984, 0.095112, 0.163368, -0.158005, 0.158058, -0.053726, 0.122007, 0.218909, -0.039534, 0.062527, 0.229265, -0.051423, -0.213938, -0.123267, 0.273978, 0.045238, 0.002919, -0.157796, 0.16812, -0.064303, 0.160929, -0.12857, -0.061632, -0.217809, 0.239887, 0.143195, -0.027024, -0.14394, 0.034959, 0.246815, 0.058245, -0.08285, 0.111022, -0.028408, -0.288219, -0.117546, -0.231995, -0.117571, -0.015074, -0.006995, -0.154954, -0.038458, 0.010952, 0.165347, -0.056126, -0.18129, 0.074229, -0.131493, -0.064759, 0.046663, 0.289678, 0.158858, 0.133004, -0.138298, -0.115939, 0.009578, -0.049037, 0.143929, 0.054973, 0.09351, -0.15443, -0.131157, 0.199793, -0.014964, -0.088956, 0.056356, 0.038389, 0.132585, -0.071209, -0.097966, 0.003692, 0.045848, 0.086217, -0.180775, 0.049562, 0.052821, -0.108653, 0.025344, -0.050881, 0.162024, -0.028369, 0.111041, 0.028623, 0.034673, 0.212283, -0.21533, 0.150346, -0.089824, 0.001585, 0.112673, -0.097911, -0.203172, 0.060959, -0.043775, 0.186392, 0.056551, -0.034861, 0.056504, 0.121058, -0.021995, -0.038588, -0.24437, -0.003436, 0.021147, -0.128294, 0.075881, -0.094853, -0.119323, 0.066214, 0.075634, -0.136189, -0.115403, -0.03592, 0.106092, -0.112948, -0.28083, -0.014145, 0.011967, -0.138903, 0.066483, -0.07882, -0.078268, -0.1708, 0.032488, -0.012723, 0.20479, -0.097877, 0.062809, 0.232602, 0.277158, 0.111949, -0.121, -0.077642, -0.021954, 0.041183, -0.239958, 0.019915, 0.186722, 0.011205, -0.070222, -0.055281, 0.138958, 0.167424, 0.088757, 0.071975, -0.091411, -0.118947, -0.170098, -0.01807, -0.119116, -0.001334, -0.007491, 0.097001, 0.136114, 0.179171, -0.272861, 0.220906, 0.084854, 0.095562, -0.06049, 0.051649, 0.197778, 0.02126, -0.002862, -0.182761, -0.107748, -0.070488, -0.094186, -0.274094, 0.130738, 0.155741, 0.263918, 0.21331, -0.133933, -0.319598, -0.253689, 0.094886, -0.000761, 0.126561, 0.017203, 0.092047, 0.148204, 0.017631, -0.085489, 0.040851, 0.204646, -0.051745, 0.079726, 0.138293, -0.081089, -0.27342, 0.039506, 0.031669, 0.053326, -0.1442, 0.235292, 0.054675, -0.085646, 0.090131, 0.064927, 0.221654, -0.114414, 0.077925, -0.389482, -0.132723, 0.002019, 0.017304, 0.069948, -0.139389, -0.29195, 0.130176, 0.109488, -0.098389, -0.019208, -0.011804, 0.103046, 0.235717, 0.280567, 0.178476, -0.061618, 0.071713, 0.072921, 0.051483, -0.078059, -0.090024, -0.282599, 0.141464, 0.063997, 0.243292, -0.045366, -0.101714, -0.053569, 0.179895, -0.009901, 0.01126, -0.012149, -0.110313, 0.131138, 0.063813, 0.109587, 0.045758, -0.131718, 0.092029, 0.172929, 0.071009, 0.018522, 0.009369, -0.133215, -0.10173, -0.015493, 0.057828, 0.136149, 0.108455, 0.005176, 0.201066, 0.13113, 0.017593, 0.073696, 0.050405, -0.058689, -0.009027, -0.111405, 0.134084, 0.028929, 0.11432, 0.002267, 0.182999, 0.008301, 0.075496, -0.047029, -0.189316, -0.134374, -0.088157, -0.020349, -0.191014, 0.043693, -0.091203, 0.014011, 0.062396, -0.33169, 0.042298, -0.13458, -0.006136, 0.001446, 0.073311, 0.054253, 0.072033, 0.148191, 0.03854, -0.050616, -0.071595, -0.150955, -0.328513, 0.104337, 0.059672, -0.134049, -0.123732, -0.038984, -0.053057, -0.063958, 0.070608, 0.066289, -0.207605, 0.020095, -0.162153, -0.007763, -0.209245, -0.055948, 0.083019, -0.026928, -0.081005, 0.09748, -0.09538, 0.270543, 0.186734, -0.163804, 0.040751, -0.10889, 0.159952, -0.249582, 0.029592, 0.058403, 0.446796, -0.045274, 0.115623, 0.080542, -0.012382, 0.07916, -0.08069, -0.089318, -0.041726, 0.086387, 0.072268, -0.048276, 0.007606, -0.319825, -0.053072, -0.026253, -0.14218, 0.004367, 0.100587, -0.078508, -0.065222, 0.166437, -0.009463, -0.234167, -0.056785, -0.25405, 0.106045, -0.038456, 0.051446, 0.168087, 0.109315, -0.21667, 0.008744, 0.167447, -0.081487, 0.001529, 0.019318, 0.076949, -0.031149, -0.012383, 0.021626, -0.056266, -0.069495, 0.193017, 0.107915, -0.033147, 0.006155, -0.210948, 0.171194, 0.127222, -0.047703, 0.162792, 0.108651, -0.006998, -0.229192, 0.013212, -0.028267, 0.118571, -0.136266, -0.130792, -0.035203, -0.009484, -0.0781, -0.142248, 0.024589, 0.023256, 0.123657, -0.037097, 0.036567, 0.097171, 0.007753, 0.163025, -0.126039, 0.116875, 0.064263, -0.100864, -0.194245, -0.020123, 0.134994, 0.113842, 0.159367, 0.197565, -0.01867, -0.055198, 0.073335, 0.003938, 0.231228, 0.0744, 0.034179, -0.077094, 0.116126, 0.018902, -0.231481, 0.052868, -0.168189, -0.066577, -0.008712, 0.047853, -0.13619, 0.145581, -0.035459, 0.08652, 0.0348, 0.23018, 0.041772, -0.140524, 0.041515, -0.101265, -0.044202, -0.022756, 0.001166, 0.016418, 0.065231, 0.058675, 0.084797, 0.299471, 0.195329, 0.02414, 0.158753, 0.181544, -0.086216, 0.034065, -0.05407, -0.164702, -0.135901, 0.024068, 0.043923, 0.138902, 0.113069, 0.109782, -0.063136, -0.038555, 0.082362, 0.034054, 0.30042, -0.192017, -0.006334, -0.099562, 0.023203, -0.239025, -0.11249, -0.063969, 0.09724, 0.106746, -0.015915, 0.196909, 0.077563, -0.123257, 0.072318, -0.101099, 0.077582, 0.054116, -0.147791, 0.142344, 0.077054, -0.139253, 0.311481, 0.162986, 0.027451, 0.034472, 0.20134, 0.238703, 0.021077, -0.109985, -0.047306, 0.080012, -0.007178, 0.01341, -0.01026, -0.351034, 0.044536, -0.218217, -0.192486, -0.169641, 0.146556, 0.024008, 0.1293, 0.083659, -0.006881, -0.265253, 0.146909, 0.274324, 0.129572, 0.058889, -0.027615, 0.126788, -0.135692, -0.122454, 0.153713, 0.059938, 0.193471, -0.019999, -0.026566, 0.118677, -0.016473, 0.088502, 0.205605, 0.069567, -0.026407, -0.100409, -0.274494, -0.012951, -0.081977, -0.170649, -0.018031, -0.004489, 0.123127, -0.112777, 0.115286, -0.065207, 0.001991, 0.188989, 0.157309, 0.181931, 0.025709, -0.041165, -0.023951, 0.119576, 0.128467, -0.097577, -0.006392, 0.154572, -0.104479, 0.108009, 0.101419, -0.117162, 0.106851, 0.037156, -0.112411, -0.12273, 0.007201, 0.116731, -0.114644, 0.03679, -0.018644, -0.050194, -0.289571, 0.103306, -0.105181, -0.040513, 0.055441, -0.011919, -0.043222, 0.224798, 0.10019, -0.064622, 0.222684, 0.148463, 0.027151, -0.042509, -0.066844, 0.034989, 0.002578, -0.01149, 0.100329, 0.101882, -0.020774, -0.124303, 0.008121, 0.037827, -0.140125, -0.003154, -0.062481, 0.018997, -0.090235, 0.109371, -0.135129, -0.072994, 0.010487, 0.035265, 0.072789, 0.027116, -0.000789, 0.160437, 0.039289, -0.01285, 0.066809, -0.078021, -0.138026, -0.005007, 0.07853, -0.121552, 0.025515, -0.089342, 0.001025, 0.206309, 0.091817, -0.09643, 0.022992, 0.049979, -0.008664, -0.104837, 0.061714, 0.017157, 0.00641, 0.001336, 0.010974, 0.173497, 0.041352, 0.121938, 0.145918, 0.027426, 0.083689, -0.013774, -0.03856, 0.251739, 0.132997, 0.178522, -0.110244, -0.0192, -0.108916, 0.076026, 0.031, -0.089289, 0.139068, -0.182106, 0.057127, 0.048129, -0.154358, 0.128917, -0.059868, 0.066118, -0.126899, -0.060704, 0.051663, 0.025819, -0.152121, -0.050567, -0.153112, -0.025364, -0.030055, 0.014471, -0.123384, 0.069445, 0.376907, 0.047997, 0.171095, -0.244756, -0.067593, 0.076236, 0.116567, 0.025911, 0.270996, 0.093248, 0.095763, 0.064009, -0.064119, -0.178214, 0.080203, -0.116064, -0.001419, -0.023947, -0.014342, -0.192454, -0.002397, -0.029776, -0.099294, 0.041614, -0.106742, 0.043562, -0.106777, 0.048016, 0.028226, 0.1977, 0.056176, 0.072488, -0.093398, 0.058839, -0.035897, 0.274386, -0.05062, 0.22309, 0.082616, 0.051524, -0.014651, -0.040161, -0.066878, -0.155506, 0.001674, -0.021163, -0.020734, -0.142069, -0.071928, 0.007588, 0.007178, 0.079508, -0.018132, 0.077923, -0.054319, -0.267747, 0.004967, -0.182577, -0.000141, 0.015676, -0.203135, -0.041433, -0.0133, -0.022689, 0.23424, -0.234129, 0.025517, -0.132685, 0.196413, 0.143539, -0.145506, 0.097967, 0.10911, 0.080746, 0.00818, -0.050088, 0.005508, -0.003869, -0.241103, -0.028214, -0.061205, 0.050764, -0.018685, 0.054552, -0.048528, -0.03478, 0.010159, -0.012122, -0.011306, 0.092176, -0.085102, -0.048151, 0.193376, 0.079033, -0.084408, 0.099868, 0.046345, -0.023968, 0.026098, 0.066855, 0.049583, 0.138846, 0.002662, 0.036942, -0.048007, -0.007442, -0.056597, 0.054417, 0.081252, -0.034622, -0.035463, 0.420767, 0.039277, 0.155874, 0.056032, -0.223712, 0.10173, -0.216248, 0.085545, 0.101765, 0.069424, 0.110555, 0.082634, -0.259524, -0.137101, -0.035492, -0.057813, -0.029626, -0.122315, 0.15636, -0.125902, 0.051363, 0.17917, -0.036969, 0.113593, -0.124084, -0.056599, -0.055099, 0.082927, -0.092015, -0.020498, -0.112714, -0.089391, 0.065167, -0.218099, 0.021573, -0.104895, 0.066194, 0.007541, 0.013429, 0.074241, -0.041019, -0.205354, -0.123757, 0.213809, 0.138486, -0.158424, -0.107439, 0.049937, 0.0533, -0.016845, -0.020136, -0.014011, -0.02041, -0.015565, -0.095745, 0.070975, -0.149814, -0.110115, 0.048557, 0.149571, 0.110666, -0.041628, -0.00092, -0.046083, -0.253475, 0.059743, 0.070007, 0.037017, -0.066295, -0.07236, 0.140378, 0.135186, 0.03585, -0.047788, 0.056346, 0.089828, 0.032797, -0.037459, -0.006716, -0.073738, -0.283692, -0.014285, 0.082406, 0.016715, 0.032512, -0.023547, -0.139701, -0.067545, 0.004278, -0.030621, -0.110198, 0.155481, 0.0351, -0.133344, 0.009415, 0.078848, 0.036642, 0.105573, -0.050864, -0.00187, 0.102308, -0.124496, -0.073159, 0.057414, 0.017653, 0.109506, 0.023209, -0.084394, -0.148846, -0.100841, 0.1328, -0.267766, -0.142933, 0.162704, 0.00839, 0.110542, 0.03803, 0.188144, 0.078642, -0.031157, -0.035941, -0.084048, 0.025447, 0.019432, 0.067968, 0.066168, -0.095849, -0.120536, -0.120628, 0.097217, 0.134151, -0.03847, 0.069002, 0.084397, -0.0429, 0.035863, -0.00244, 0.089002, 0.136729, -0.161847, 0.025049, -0.107655, 0.124739, 0.00528, 0.18455, -0.039502, 0.089045, 0.133532, -0.042165, -0.050991, -0.055949, -0.083948, 0.018371, 0.196318, 0.122752, 0.084999, -0.047308, -0.061683, 0.017134, -0.004324, 0.074312, 0.018441, 0.182352, -0.178551, -0.062146, -0.046774, 0.164386, -0.057542, 0.214213, -0.004935, -0.123467, -0.022066, 0.038855, 0.134074, -0.192667, -0.006635, 0.184618, -0.286847, 0.133764, -0.078332, -0.125024, 0.003705, 0.037001, -0.064438, -0.219173, -0.098464, -0.181932, -0.217362, -0.003486, -0.072006, 0.085342, 0.056793, -0.067699, 0.02692, 0.101961, -0.177677, 0.105, 0.144774, -0.063508, -0.103256, 0.054604, 0.053124, -0.092794, 0.049142, 0.013019, 0.019895, -8.7e-05, -0.226857, -0.377634, -0.062269, 0.036443, -0.094979, 0.128252, -0.029631, -0.039047, 0.103281, 0.07299, 0.01778, -0.084418, 0.205486, -0.010262, 0.052451, 0.074763, -0.116829, 0.13946, 0.118052, -0.049741, -0.1316, 0.069237, 0.004781, 0.043241, 0.089722, 0.05186, 0.064754, -0.190469, 0.089304, -0.080998, -0.043274, 0.028807, -0.065672, -0.039213, -0.068505, -0.146444, 0.008778, -0.129623, 0.062495, 0.033078, -0.066548, -0.077158, -0.024324, 0.041798, 0.022746, 0.034954, 0.095645, -0.057019, 0.117738, 0.038009, -0.032936, -0.062944, -0.019652, 0.031274, 0.006973, 0.052595, -0.079232, 0.012958, -0.010416, 0.043873, -0.118628, 0.009615, -0.068381, -0.082902, -0.02263, -0.060431, -0.020564, 0.041491, -0.03373, -0.025225, -0.101943, -0.089146, -0.108601, 0.029704, -0.052261, -0.097654, 0.044293, 0.043996, 0.119087, -0.01208, 0.048856, -0.025455, 0.075945, -0.04707, 0.032404, 0.027255, -0.050348, -0.045588, -0.090311, -0.021542, 0.080393, -0.061228, -0.081055, 0.095397, -0.07737, 0.093894, -0.078321, -0.036471, -0.0404, 0.039844, 0.003412, 0.021676, 0.019885, 0.077271, -0.079185, -0.014778, -0.007636, 0.085403, 0.000252, -0.043619, -0.066368, 0.03558, 0.05373, 0.031589, -0.060623, 0.071235, 0.068, 0.036708, -0.027401, -0.095666, 0.030709, 0.122447, 0.10209, -0.002362, 0.0074, -0.018362, 0.029287, -0.005407, 0.098969, -0.011132, -0.100266, -0.118786, 0.03145, 0.05543, -0.009033, -0.065377, -0.104791, -0.065608, -0.037935, -0.04064, 0.000147, -0.086768, -0.111981, -0.009252, 0.05915, 0.156702, 0.043307, -0.054469, 0.214993, 0.017441, 0.002573, 0.001099, 0.12056, 0.082344, -0.050245, -0.005471, -0.093916, -0.015114, -0.026902, -0.140256, 0.053278, 0.022804, 0.035804, 0.003281, 0.042269, -0.041605, 0.009456, -0.007012, -0.058215, 0.09628, 0.035808, 0.073316, -0.058797, 0.111867, 0.10713, 0.033493, 0.076029, 0.088916, -0.015597, -0.079874, -0.208673, -0.140464, 0.135203, -0.022886, -0.168117, -0.057317, -0.055834, -0.121566, 0.001529, -0.035747, -0.106532, 0.176764, -0.011526, 0.060513, 0.232665, -0.004458, -0.084406, -0.033495, 0.109076, -0.17254, 0.06212, -0.092329, -0.117019, 0.072286, 0.022133, 0.174095, 0.117676, 0.106633, -0.032786, 0.010832, -0.082944, -0.109432, 0.148002, -0.05304, -0.02809, 0.004482, -0.159057, -0.11013, 0.012502, 0.031817, 0.06394, -0.089827, -0.03818, 0.084826, 0.03479, -0.13586, -0.007799, -0.178288, -0.093897, -0.05188, -0.031192, 0.194251, -0.12216, -0.075827, -0.078994, 0.132439, 0.054268, 0.130085, -0.145006, 0.266811, 0.012409, 0.077858, -0.083636, 0.170164, -0.027161, -0.037166, -0.130659, 0.089502, -0.073684, -0.042099, -0.013146, 0.018685, -0.033518, 0.088359, 0.048593, 0.158394, 0.04484, 0.120149, -0.039116, 0.05251, -0.005155, 0.008498, 0.04321, 0.057647, -0.08868, -0.001067, -0.069944, -0.083465, 0.212412, 0.048393, 0.057935, -0.049556, -0.040763, 0.082543, -0.020088, 0.085406, -0.056715, 0.027846, 0.033744, -0.172369, -0.167099, 0.031849, -0.033216, 0.150678, -0.028909, -0.028022, -0.0481, 0.035849, 0.202627, 0.015793, 0.032787, 0.10348, 0.013664, 0.335296, -0.000158, -0.043443, 0.23044, 0.061722, -0.055895, -0.154437, 0.160266, -0.062863, 0.082013, -0.069892, -0.062541, -0.174263, -0.077113, -0.046597, -0.012529, 0.001343, 0.147344, -0.050247, 0.102218, 0.049002, -0.203986, -0.336133, -0.051696, 0.093035, -0.001255, 0.052142, -0.183944, -0.113566, 0.035064, -0.00588, 0.120122, 0.064839, 0.236598, -0.027235, 0.006309, -0.13057, 0.216429, -0.004687, 0.025777, -0.071648, -0.168008, 0.279593, 0.080104, -0.002132, -0.101367, -0.100905, -0.221289, 0.035255, -0.064831, 0.257031, -0.018755, 0.278762, -0.05087, -0.010464, -0.231632, 0.138262, -0.493335, 0.245131, 0.040649, 0.254383, 0.12858, -0.122365, -0.118527, -0.140902, 0.00029, -0.157535, -0.042481, 0.068666, -0.117373, -0.239641, 0.35212, -0.365127, -0.097216, -0.065471, -0.103058, 0.147089, 0.098203, 0.250509, 0.050354, 0.169079, 0.044002, -0.043696, -0.015117, 0.096714, 0.021855, 0.192265, -0.024994, 0.22495, 0.284677, 0.201839, -0.010383, 0.017211, -0.006219, -0.089979, 0.152987, 0.01499, 0.100525, 0.209848, 0.009657, 0.033873, 0.093667, 0.026647, 0.157036, -0.010496, 0.085147, 0.220348, 0.015275, 0.053018, 0.072347, -0.078884, -0.152682, -0.207303, -0.461168, -0.154881, 0.107071, 0.077901, -0.215326, -0.070586, 0.151624, -0.236437, 0.172632, -0.033125, 0.145416, -0.073269, 0.074374, 0.012481, -0.140104, 0.027409, -0.086195, 0.021467, 0.02332, -0.03458, 0.024473, 0.06468, 0.055377, 0.061245, -0.036453, -0.179638, -0.104506, -0.222762, 0.182374, 0.006004, -0.039776, 0.100742, 0.095526, -0.219211, -0.150663, -0.028881, -0.12325, -0.030699, -0.009955, 0.307946, 0.048438, 0.123279, 0.001006, -0.09165, 0.063826, 0.096021, 0.017552, 0.008351, -0.168659, -0.330273, 0.052011, 0.094019, 0.066604, 0.107709, -0.105995, -0.121135, 0.002184, -0.001799, -0.030288, 0.032597, 0.073857, 0.120013, 0.000325, 0.029081, 0.039218, -0.118849, 0.183371, 0.05997, 0.058292, 0.065618, 0.186109, -0.168906, -0.109884, -0.061257, 0.14053, 0.002544, 0.088972, -0.060828, 0.107406, 0.018413, 0.20158, -0.084868, -0.209198, -0.118148, 0.363461, 0.018007, 0.086594, -0.047454, 0.137234, 0.134862, 0.103118, -0.011825, 0.146526, -0.11379, -0.224561, -0.11917, -0.308371, 0.066, 0.057025, 0.11053, -0.086783, 0.079072, 0.149636, -0.085946, -0.081293, -0.056565, -0.107955, -0.136577, -0.080277, -0.063997, 0.182697, 0.069117, -0.013092, -0.004447, -0.055569, 0.086431, 0.083774, 0.116614, -0.056299, -0.016876, -0.226285, -0.196785, 0.216832, -0.162015, -0.024014, 0.114395, -0.179789, 0.172388, -0.069506, -0.001475, -0.008136, 0.118646, 0.110572, -0.113235, 0.027492, 0.057807, -0.101043, 0.072346, -0.199741, 0.066998, 0.058513, 0.119376, -0.025334, -0.046978, 0.056115, -0.125777, 0.328978, -0.16251, 0.005947, 0.07835, -0.266284, -0.189637, 0.0697, 0.079288, 0.136531, 0.177735, 0.070087, 0.123294, 0.205298, -0.158173, -0.116814, -0.033049, -0.037495, -0.020669, -0.072513, -0.021188, -0.041196, -0.077234, 0.128584, -0.032943, -0.18936, -0.205065, -0.045412, 0.195262, 0.007689, -0.060962, 0.019242, 0.04685, -0.237543, -0.061108, -0.143923, 0.103429, -0.08996, 0.035169, -0.044989, 0.077197, -0.032067, 0.048398, 0.227372, 0.070897, 0.058176, -0.094692, -0.060161, 0.050498, -0.065005, -0.075864, 0.10245, 0.263521, 0.106295, -0.013217, 0.057717, 0.122354, 0.152157, 0.109014, -0.124514, -0.008483, -0.142074, -0.195702, -0.282251, -0.068314, -0.064223, 0.192286, 0.085557, 0.05448, -0.15768, -0.181535, -0.011807, -0.030094, 0.038459, 0.009864, -0.10449, 0.097366, 0.035798, 0.098349, 0.006019, -0.152518, 0.009314, -0.280907, -0.327277, 0.100959, 0.020979, 0.19107, 0.231258, -0.109534, -0.186807, -0.200315, -0.044672, 0.157841, 0.090079, 0.067224, -0.032215, 0.218886, -0.035346, -0.057247, -0.022612, 0.281237, -0.208436, 0.04901, 0.017015, 0.002152, -0.129022, -0.096055, -0.110626, 0.136875, -0.176038, 0.093542, -0.018823, 0.216328, 0.281303, 0.024187, 0.131879, -0.071437, -0.014131, -0.38675, -0.161261, -0.157743, -0.085925, 0.018461, -0.152572, 0.152746, 0.108715, 0.041501, 0.003167, -0.077314, 0.026201, -0.038251, -0.01526, 0.142058, 0.055709, 0.138859, 0.031052, -0.007856, 0.159106, 0.108779, 0.06064, -0.200208, 0.160761, 0.132736, 0.259898, -0.049666, 0.037019, 0.162209, 0.288946, 0.069359, -0.076202, -0.059032, -0.145377, 0.152666, 0.011666, 0.240236, -0.064355, -0.067342, 0.165363, 0.08003, 0.08531, -0.047622, -0.086966, -0.07726, -0.097203, 0.073798, 0.195721, 0.034071, 0.043334, 0.102621, 0.154732, 0.237408, 0.092148, 0.005219, 0.128346, 0.033732, 0.05943, 0.054612, 0.202967, 0.151221, 0.030255, -0.012151, 0.244069, -0.051472, 0.159101, 0.024901, 0.105076, -0.001646, -0.199323, -0.137321, -0.142509, 0.143758, -0.093261, 0.294793, -0.108493, -0.471049, -0.076437, -0.158658, -0.135932, 0.131816, 0.062885, 0.022746, 0.08995, 0.110872, -0.028068, 0.165402, -0.116286, -0.07552, -0.296288, 0.151549, 0.144798, 0.143245, -0.285447, -0.175455, -0.068545, 0.102226, 0.109096, 0.123771, -0.173565, -0.022405, -0.252792, 0.034517, -0.234246, 0.047642, -0.158747, 0.134035, -0.034023, 0.052981, -0.211691, 0.15642, 0.148776, -0.140004, 0.055558, -0.163813, 0.009061, -0.165398, 0.024889, -0.052806, 0.413279, -0.028189, 0.04154, -0.00369, 0.126589, -0.067989, 0.022973, 0.085667, 0.002523, -0.102703, -0.060419, -0.044255, -0.046064, -0.289002, 0.071547, -0.013327, -0.148444, 0.206788, 0.002211, -0.010357, -0.062578, 0.193863, -0.046996, -0.293172, -0.036468, -0.229044, 0.201446, -0.222357, -0.045536, 0.086087, 0.168884, -0.364568, 0.013231, 0.115796, -0.096655, 0.062926, 0.00083, -0.002947, 0.003282, -0.224953, 0.0319, -0.097206, -0.092037, 0.043082, -0.030882, -0.013908, 0.143245, -0.081131, 0.075456, 0.12979, 0.003193, 0.243717, -0.011576, -0.087986, -0.039793, 0.125092, 0.005554, 0.292685, -0.039537, -0.01973, 0.057698, -0.007479, -0.068807, 0.047472, 0.011308, -0.013488, -0.006817, -0.124613, 0.034265, 0.130922, -0.00633, 0.095618, -0.001941, 0.100295, 0.179294, -0.027752, -0.014333, -0.04714, 0.007213, 0.142298, -0.010012, 0.008308, -0.056979, 0.14913, 0.165856, 0.051138, 0.018316, 0.096241, 0.122879, -0.007048, 0.022089, -0.053926, -0.140389, 0.029005, -0.104571, -0.158894, 0.018055, -0.083221, 0.025959, 0.061571, 0.016628, 0.014392, 0.109742, 0.190859, 0.034635, -0.144454, -0.139263, -0.067521, -0.089923, -0.099258, -0.032244, 0.124204, -0.010137, 0.10103, 0.107738, 0.1708, 0.136616, 0.004298, 0.187314, 0.141526, -0.16104, 0.012298, -0.15242, -0.058308, -0.28175, -0.153278, -0.011103, -0.070873, 0.013579, 0.048148, -0.108202, 0.010619, -0.062528, -0.134055, 0.190787, -0.287224, -0.028477, -0.199243, 0.103608, -0.224239, -0.064088, -0.169713, 0.131532, -0.001614, -0.070588, 0.249501, 0.036833, -0.007319, 0.012013, -0.090731, -0.054727, 0.033886, -0.160994, 0.225086, 0.008691, 0.106701, 0.164426, 0.03355, 0.110846, 0.113027, 0.197903, 0.109921, -0.038425, -0.137374, 0.129478, 0.032157, -0.004932, -0.041412, 0.162263, -0.193902, 0.043964, -0.337225, -0.20983, -0.069531, 0.094622, -0.005657, 0.141271, 0.017233, -0.030481, -0.167178, 0.079755, 0.133, 0.099435, -0.139574, -0.031629, -0.034741, 0.082396, -0.361501, 0.05076, 0.138257, 0.114646, -0.137312, 0.016052, -0.062705, -0.109328, 0.035284, 0.279871, -0.138072, 0.002361, -0.077911, -0.361777, 0.072769, -8.3e-05, -0.222453, -0.044686, 0.169112, 0.030074, -0.203125, -0.001401, -0.237886, 0.13353, 0.073347, -0.069666, 0.049634, -0.07897, 0.047069, 0.060638, 0.027895, -0.07787, -0.084438, -0.093034, 0.268327, -0.046684, -0.005085, 0.199093, -0.213566, 0.131303, 